{"learner":{"attributes":{"scikit_learn":"{\"_estimator_type\": \"classifier\"}"},"feature_names":[],"feature_types":[],"gradient_booster":{"model":{"gbtree_model_param":{"num_parallel_tree":"1","num_trees":"100"},"iteration_indptr":[0,1,2,3,4,5,6,7,8,9,10,11,12,13,14,15,16,17,18,19,20,21,22,23,24,25,26,27,28,29,30,31,32,33,34,35,36,37,38,39,40,41,42,43,44,45,46,47,48,49,50,51,52,53,54,55,56,57,58,59,60,61,62,63,64,65,66,67,68,69,70,71,72,73,74,75,76,77,78,79,80,81,82,83,84,85,86,87,88,89,90,91,92,93,94,95,96,97,98,99,100],"tree_info":[0,0,0,0,0,0,0,0,0,0,0,0,0,0,0,0,0,0,0,0,0,0,0,0,0,0,0,0,0,0,0,0,0,0,0,0,0,0,0,0,0,0,0,0,0,0,0,0,0,0,0,0,0,0,0,0,0,0,0,0,0,0,0,0,0,0,0,0,0,0,0,0,0,0,0,0,0,0,0,0,0,0,0,0,0,0,0,0,0,0,0,0,0,0,0,0,0,0,0,0],"trees":[{"base_weights":[2.2303178E-7,1.13502584E-1,-1.6366175E0,-2.5248346E-1,9.6369976E-1,-1.4847568E-1,-1.0431521E0,1.002683E0,-1.2788276E-1,-6.1116525E-4,-1.8782991E0,3.1269363E-1,3.2550998E-2,-2.4973564E-1,8.351296E-1,-2.3083022E0,1.7194878E-1,-3.9789308E-2,-9.489672E-1,2.7263215E-1,-8.315923E-2,-8.47637E-1,-1.1450034E-1],"categories":[],"categories_nodes":[],"categories_segments":[],"categories_sizes":[],"default_left":[0,0,0,0,0,0,0,0,0,0,0,0,0,0,0,0,0,0,0,0,0,0,0],"id":0,"left_children":[1,3,-1,5,7,9,-1,11,-1,13,15,-1,-1,17,19,21,-1,-1,-1,-1,-1,-1,-1],"loss_changes":[1.0255457E2,5.072867E1,0E0,3.7790813E1,3.0843163E0,2.856723E1,0E0,1.5875854E0,0E0,2.1840126E1,1.0594332E1,0E0,0E0,2.7150665E1,2.2251587E0,6.5752907E0,0E0,0E0,0E0,0E0,0E0,0E0,0E0],"parents":[2147483647,0,0,1,1,3,3,4,4,5,5,7,7,9,9,10,10,13,13,14,14,15,15],"right_children":[2,4,-1,6,8,10,-1,12,-1,14,16,-1,-1,18,20,22,-1,-1,-1,-1,-1,-1,-1],"split_conditions":[5E-1,2.5E-1,-1.6366175E0,3.3333334E-1,5E-1,2.5E-1,-1.0431521E0,5E-1,-1.2788276E-1,3.3333334E-1,3.3333334E-1,3.1269363E-1,3.2550998E-2,5E-1,2.5E-1,2.5E-1,1.7194878E-1,-3.9789308E-2,-9.489672E-1,2.7263215E-1,-8.315923E-2,-8.47637E-1,-1.1450034E-1],"split_indices":[200,1303,0,649,2046,2212,0,1318,0,1053,1030,0,0,2394,1117,2345,0,0,0,0,0,0,0],"split_type":[0,0,0,0,0,0,0,0,0,0,0,0,0,0,0,0,0,0,0,0,0,0,0],"sum_hessian":[1.6362434E2,1.6124867E2,2.3756711E0,1.13215576E2,4.80331E1,1.1069143E2,2.5241506E0,4.6993744E1,1.0393561E0,1.02896255E2,7.795171E0,4.4840794E1,2.152952E0,7.98077E1,2.3088554E1,6.6815753E0,1.1135958E0,7.772899E1,2.0787122E0,2.1826479E1,1.2620753E0,4.8998218E0,1.7817533E0],"tree_param":{"num_deleted":"0","num_feature":"2500","num_nodes":"23","size_leaf_vector":"1"}},{"base_weights":[3.5899017E-2,-2.2686188E-1,8.7630767E-1,-6.9933236E-2,-1.8691573E0,9.4443226E-1,-1.7951694E-1,-1.7018236E-2,-7.815373E-1,-2.1630337E0,-1.0331443E-2,9.906184E-1,3.33283E-3,-1.9391026E-1,7.324349E-1,-2.4649096E0,-1.216352E-1,1.0118476E0,3.875546E-2,-3.2754606E-1,2.9532295E-1,9.275936E-1,-5.7062185E-1,-8.759368E-1,-8.110678E-1,3.105653E-1,1.1079166E-1,-6.733187E-2,-5.486136E-1,2.914734E-1,5.2641656E-2,-3.812484E-1,1.7536876E-1,-4.0911672E-1,4.025322E-2],"categories":[],"categories_nodes":[],"categories_segments":[],"categories_sizes":[],"default_left":[0,0,0,0,0,0,0,0,0,0,0,0,0,0,0,0,0,0,0,0,0,0,0,0,0,0,0,0,0,0,0,0,0,0,0],"id":1,"left_children":[1,3,5,7,9,11,-1,13,-1,15,-1,17,-1,19,21,23,-1,25,-1,27,-1,29,31,-1,33,-1,-1,-1,-1,-1,-1,-1,-1,-1,-1],"loss_changes":[3.6913017E1,3.2716614E1,4.5641975E0,1.5701404E1,5.8982887E0,1.6458588E0,0E0,1.5517928E1,0E0,4.057991E0,0E0,5.3884506E-1,0E0,1.5222556E1,6.2146893E0,3.603527E0,0E0,1.5205002E-1,0E0,1.2859838E1,0E0,4.8537064E-1,3.5992627E0,0E0,1.800802E0,0E0,0E0,0E0,0E0,0E0,0E0,0E0,0E0,0E0,0E0],"parents":[2147483647,0,0,1,1,2,2,3,3,4,4,5,5,7,7,9,9,11,11,13,13,14,14,15,15,17,17,19,19,21,21,22,22,24,24],"right_children":[2,4,6,8,10,12,-1,14,-1,16,-1,18,-1,20,22,24,-1,26,-1,28,-1,30,32,-1,34,-1,-1,-1,-1,-1,-1,-1,-1,-1,-1],"split_conditions":[2.5E-1,2.5E-1,5E-1,5E-1,3.3333334E-1,2.5E-1,-1.7951694E-1,3.3333334E-1,-7.815373E-1,3.3333334E-1,-1.0331443E-2,3.3333334E-1,3.33283E-3,5E-1,2.5E-1,2.5E-1,-1.216352E-1,5E-1,3.875546E-2,2.5E-1,2.9532295E-1,2.5E-1,2.5E-1,-8.759368E-1,2.5E-1,3.105653E-1,1.1079166E-1,-6.733187E-2,-5.486136E-1,2.914734E-1,5.2641656E-2,-3.812484E-1,1.7536876E-1,-4.0911672E-1,4.025322E-2],"split_indices":[1303,104,2046,1079,1030,342,0,1053,0,1661,0,1209,0,744,1117,1390,0,1318,0,2470,0,715,2458,0,2345,0,0,0,0,0,0,0,0,0,0],"split_type":[0,0,0,0,0,0,0,0,0,0,0,0,0,0,0,0,0,0,0,0,0,0,0,0,0,0,0,0,0,0,0,0,0,0,0],"sum_hessian":[1.652582E2,1.2645197E2,3.8806225E1,1.1637446E2,1.0077515E1,3.74364E1,1.3698235E0,1.14981255E2,1.3931983E0,8.531961E0,1.5455536E0,3.561269E1,1.823709E0,9.3624504E1,2.1356752E1,6.937893E0,1.5940682E0,3.4585747E1,1.026943E0,8.47364E1,8.888112E0,1.8825413E1,2.5313394E0,4.840956E0,2.0969367E0,3.278229E1,1.8034571E0,8.036602E1,4.370371E0,1.7509659E1,1.3157545E0,1.5137082E0,1.0176312E0,1.0438899E0,1.0530467E0],"tree_param":{"num_deleted":"0","num_feature":"2500","num_nodes":"35","size_leaf_vector":"1"}},{"base_weights":[4.0783074E-2,-1.4669986E-1,8.158019E-1,-4.6115663E-2,-1.4593197E0,8.9593977E-1,-1.3523977E-1,6.302918E-3,-7.2930294E-1,-8.123128E-1,-8.1886214E-1,9.522263E-1,2.692489E-3,4.5539726E-2,-6.962273E-1,-1.4869195E0,1.6149749E-1,9.787828E-1,3.3372987E-2,9.781684E-2,-4.477361E-1,-1.7249885E-1,-6.8179417E-1,3.0384213E-1,9.236951E-2,5.961822E-3,2.8969017E-1],"categories":[],"categories_nodes":[],"categories_segments":[],"categories_sizes":[],"default_left":[0,0,0,0,0,0,0,0,0,0,0,0,0,0,0,0,0,0,0,0,0,0,0,0,0,0,0],"id":2,"left_children":[1,3,5,7,9,11,-1,13,-1,15,-1,17,-1,19,-1,21,-1,23,-1,25,-1,-1,-1,-1,-1,-1,-1],"loss_changes":[2.3788553E1,1.736202E1,3.6399899E0,1.547293E1,5.47785E0,1.5051308E0,0E0,1.1243828E1,0E0,7.749882E0,0E0,5.276413E-1,0E0,9.870144E0,0E0,2.5283098E0,0E0,3.1588554E-1,0E0,7.956189E0,0E0,0E0,0E0,0E0,0E0,0E0,0E0],"parents":[2147483647,0,0,1,1,2,2,3,3,4,4,5,5,7,7,9,9,11,11,13,13,15,15,17,17,19,19],"right_children":[2,4,6,8,10,12,-1,14,-1,16,-1,18,-1,20,-1,22,-1,24,-1,26,-1,-1,-1,-1,-1,-1,-1],"split_conditions":[2.5E-1,3.3333334E-1,5E-1,5E-1,3.3333334E-1,2.5E-1,-1.3523977E-1,1E0,-7.2930294E-1,1.4285715E-1,-8.1886214E-1,3.3333334E-1,2.692489E-3,5E-1,-6.962273E-1,3.3333334E-1,1.6149749E-1,2.5E-1,3.3372987E-2,5E-1,-4.477361E-1,-1.7249885E-1,-6.8179417E-1,3.0384213E-1,9.236951E-2,5.961822E-3,2.8969017E-1],"split_indices":[1303,2265,2046,1776,1670,342,0,2346,0,76,0,1209,0,678,0,1007,0,104,0,744,0,0,0,0,0,0,0],"split_type":[0,0,0,0,0,0,0,0,0,0,0,0,0,0,0,0,0,0,0,0,0,0,0,0,0,0,0],"sum_hessian":[1.6189342E2,1.3101146E2,3.0881952E1,1.2264823E2,8.363229E0,2.9319548E1,1.562405E0,1.2098638E2,1.6618528E0,6.6271105E0,1.736118E0,2.7500778E1,1.8187702E0,1.1994442E2,1.0419647E0,4.352336E0,2.2747748E0,2.6500105E1,1.0006723E0,1.1690709E2,3.037327E0,2.8159344E0,1.5364013E0,2.4735949E1,1.7641574E0,1.0821089E2,8.6962E0],"tree_param":{"num_deleted":"0","num_feature":"2500","num_nodes":"27","size_leaf_vector":"1"}},{"base_weights":[2.5512356E-2,8.298383E-2,-6.462947E-1,-7.107512E-2,8.643076E-1,-1.941716E-1,6.166718E-1,9.297682E-1,-2.2887122E-2,-1.465751E-1,-6.4331305E-1,7.441275E-1,-2.5920862E-1,2.8939298E-1,2.7068984E-2,-5.9908677E-2,-1.1059933E0,8.77226E-1,-1.331154E-1,-6.2300614E-3,-5.072054E-1,-1.5814614E-1,-6.4984053E-1,3.02989E-1,7.597499E-2],"categories":[],"categories_nodes":[],"categories_segments":[],"categories_sizes":[],"default_left":[0,0,0,0,0,0,0,0,0,0,0,0,0,0,0,0,0,0,0,0,0,0,0,0,0],"id":3,"left_children":[1,3,-1,5,7,9,11,13,-1,15,-1,17,-1,-1,-1,19,21,23,-1,-1,-1,-1,-1,-1,-1],"loss_changes":[1.9842726E1,1.8585575E1,0E0,1.1080656E1,1.6362495E0,9.949694E0,4.397576E0,6.110916E-1,0E0,8.998277E0,0E0,3.3702784E0,0E0,0E0,0E0,6.4144692E0,4.365307E0,1.176383E0,0E0,0E0,0E0,0E0,0E0,0E0,0E0],"parents":[2147483647,0,0,1,1,3,3,4,4,5,5,6,6,7,7,9,9,11,11,15,15,16,16,17,17],"right_children":[2,4,-1,6,8,10,12,14,-1,16,-1,18,-1,-1,-1,20,22,24,-1,-1,-1,-1,-1,-1,-1],"split_conditions":[5E-1,2.5E-1,-6.462947E-1,3.3333334E-1,1.6666667E-1,1E0,5E-1,5E-1,-2.2887122E-2,3.3333334E-1,-6.4331305E-1,2.5E-1,-2.5920862E-1,2.8939298E-1,2.7068984E-2,5E-1,2.5E-1,3.3333334E-1,-1.331154E-1,-6.2300614E-3,-5.072054E-1,-1.5814614E-1,-6.4984053E-1,3.02989E-1,7.597499E-2],"split_indices":[2063,1303,0,1053,649,359,1034,1230,0,1670,0,1938,0,0,0,1079,2003,1670,0,0,0,0,0,0,0],"split_type":[0,0,0,0,0,0,0,0,0,0,0,0,0,0,0,0,0,0,0,0,0,0,0,0,0],"sum_hessian":[1.5596262E2,1.5289348E2,3.069127E0,1.2847101E2,2.4422476E1,1.0957617E2,1.8894836E1,2.2844156E1,1.5783187E0,1.0801512E2,1.5610472E0,1.7855335E1,1.0395024E0,2.1789968E1,1.0541875E0,1.00040665E2,7.9744563E0,1.6291378E1,1.563956E0,9.868478E1,1.3558929E0,6.12658E0,1.8478763E0,1.2923576E1,3.3678017E0],"tree_param":{"num_deleted":"0","num_feature":"2500","num_nodes":"25","size_leaf_vector":"1"}},{"base_weights":[1.5867028E-2,5.0406538E-2,-6.629509E-1,9.588712E-2,-5.165161E-1,-1.3209668E-2,7.636955E-1,5.382528E-2,-8.420727E-1,8.8237876E-1,-1.2158875E-1,-5.2325455E-3,2.7593058E-1,-3.6457416E-1,-5.1311266E-1,2.9364645E-1,-3.955756E-2,1.3487749E-2,-3.140146E-1,-1.9474816E-1,2.0889728E-1],"categories":[],"categories_nodes":[],"categories_segments":[],"categories_sizes":[],"default_left":[0,0,0,0,0,0,0,0,0,0,0,0,0,0,0,0,0,0,0,0,0],"id":4,"left_children":[1,3,-1,5,-1,7,9,11,13,15,-1,17,-1,19,-1,-1,-1,-1,-1,-1,-1],"loss_changes":[1.1796864E1,1.2308017E1,0E0,1.0781005E1,0E0,7.160789E0,3.2402554E0,6.1120114E0,3.374228E0,2.0048819E0,0E0,5.9429865E0,0E0,2.7139874E0,0E0,0E0,0E0,0E0,0E0,0E0,0E0],"parents":[2147483647,0,0,1,1,3,3,5,5,6,6,7,7,8,8,9,9,11,11,13,13],"right_children":[2,4,-1,6,-1,8,10,12,14,16,-1,18,-1,20,-1,-1,-1,-1,-1,-1,-1],"split_conditions":[1E0,5E-1,-6.629509E-1,2.5E-1,-5.165161E-1,3.3333334E-1,5E-1,5E-1,3.3333334E-1,5E-1,-1.2158875E-1,5E-1,2.7593058E-1,1E0,-5.1311266E-1,2.9364645E-1,-3.955756E-2,1.3487749E-2,-3.140146E-1,-1.9474816E-1,2.0889728E-1],"split_indices":[2166,1776,0,1303,0,2265,2046,744,1670,1318,0,1235,0,1014,0,0,0,0,0,0,0],"split_type":[0,0,0,0,0,0,0,0,0,0,0,0,0,0,0,0,0,0,0,0,0],"sum_hessian":[1.5100674E2,1.4966159E2,1.3451662E0,1.4683894E2,2.8226428E0,1.27061676E2,1.9777264E1,1.1841947E2,8.642206E0,1.8177002E1,1.6002632E0,1.1178933E2,6.630139E0,6.49199E0,2.1502166E0,1.663054E1,1.5464612E0,1.07562454E2,4.2268767E0,5.4248695E0,1.0671203E0],"tree_param":{"num_deleted":"0","num_feature":"2500","num_nodes":"21","size_leaf_vector":"1"}},{"base_weights":[8.964769E-3,5.356838E-2,-1.2701157E0,-3.9324965E-2,7.5893664E-1,-1.5589708E-1,-4.9046633E-1,-1.2770055E-1,5.460933E-1,8.554305E-1,-8.2189515E-2,-1.9443728E-1,7.316776E-1,6.7451406E-1,-1.7353219E-1,8.964707E-1,6.2279593E-2,-2.477841E-1,2.6909754E-1,2.952861E-1,-4.0539593E-2,8.2464075E-1,-1.0859154E-1,2.8653204E-1,4.919032E-2,-9.163116E-2,2.182448E-1,2.9202658E-1,6.887767E-2],"categories":[],"categories_nodes":[],"categories_segments":[],"categories_sizes":[],"default_left":[0,0,0,0,0,0,0,0,0,0,0,0,0,0,0,0,0,0,0,0,0,0,0,0,0,0,0,0,0],"id":5,"left_children":[1,3,5,7,9,-1,-1,11,13,15,-1,17,19,21,-1,23,-1,25,-1,-1,-1,27,-1,-1,-1,-1,-1,-1,-1],"loss_changes":[8.469942E0,9.41718E0,5.19948E-1,6.668467E0,1.9009199E0,0E0,0E0,6.544257E0,2.833415E0,2.269249E-1,0E0,6.2992597E0,1.9403038E0,2.7330847E0,0E0,4.5794296E-1,0E0,5.8613367E0,0E0,0E0,0E0,1.013444E0,0E0,0E0,0E0,0E0,0E0,0E0,0E0],"parents":[2147483647,0,0,1,1,2,2,3,3,4,4,7,7,8,8,9,9,11,11,12,12,13,13,15,15,17,17,21,21],"right_children":[2,4,6,8,10,-1,-1,12,14,16,-1,18,20,22,-1,24,-1,26,-1,-1,-1,28,-1,-1,-1,-1,-1,-1,-1],"split_conditions":[5E-1,2.5E-1,2.5E-1,3.3333334E-1,5E-1,-1.5589708E-1,-4.9046633E-1,5E-1,5E-1,3.3333334E-1,-8.2189515E-2,5E-1,2.5E-1,2.5E-1,-1.7353219E-1,3.3333334E-1,6.2279593E-2,5E-1,2.6909754E-1,2.952861E-1,-4.0539593E-2,3.3333334E-1,-1.0859154E-1,2.8653204E-1,4.919032E-2,-9.163116E-2,2.182448E-1,2.9202658E-1,6.887767E-2],"split_indices":[2063,1303,2458,1053,898,0,0,2421,1034,596,0,974,2470,1938,0,1276,0,744,0,0,0,1670,0,0,0,0,0,0,0],"split_type":[0,0,0,0,0,0,0,0,0,0,0,0,0,0,0,0,0,0,0,0,0,0,0,0,0,0,0,0,0],"sum_hessian":[1.4626846E2,1.4226556E2,4.0029116E0,1.2654455E2,1.5721013E1,2.1023257E0,1.9005857E0,1.1062613E2,1.5918416E1,1.4534971E1,1.1860421E0,1.0337229E2,7.2538366E0,1.4646035E1,1.2723814E0,1.33081E1,1.2268713E0,9.9292076E1,4.0802197E0,5.5119824E0,1.7418541E0,1.2971592E1,1.674443E0,1.2040385E1,1.2677146E0,9.4398506E1,4.8935704E0,9.868324E0,3.1032674E0],"tree_param":{"num_deleted":"0","num_feature":"2500","num_nodes":"29","size_leaf_vector":"1"}},{"base_weights":[1.946179E-2,5.49454E-2,-4.40128E-1,7.534528E-3,2.779269E-1,3.4632664E-2,-4.515464E-1,7.1060486E-2,-3.9133453E-1,1.0209679E-1,-4.100421E-1,4.460292E-2,-2.6827046E-1],"categories":[],"categories_nodes":[],"categories_segments":[],"categories_sizes":[],"default_left":[0,0,0,0,0,0,0,0,0,0,0,0,0],"id":6,"left_children":[1,3,-1,5,-1,7,-1,9,-1,11,-1,-1,-1],"loss_changes":[7.775159E0,5.9194365E0,0E0,5.669683E0,0E0,6.707683E0,0E0,6.073306E0,0E0,6.216544E0,0E0,0E0,0E0],"parents":[2147483647,0,0,1,1,3,3,5,5,7,7,9,9],"right_children":[2,4,-1,6,-1,8,-1,10,-1,12,-1,-1,-1],"split_conditions":[1E0,5E-1,-4.40128E-1,1E0,2.779269E-1,5E-1,-4.515464E-1,1E0,-3.9133453E-1,5E-1,-4.100421E-1,4.460292E-2,-2.6827046E-1],"split_indices":[359,744,0,2166,0,1776,0,2346,0,2458,0,0,0],"split_type":[0,0,0,0,0,0,0,0,0,0,0,0,0],"sum_hessian":[1.4487282E2,1.4243594E2,2.436864E0,1.3604344E2,6.392507E0,1.3460918E2,1.4342675E0,1.3196616E2,2.6430209E0,1.3008722E2,1.8789322E0,1.25089905E2,4.997316E0],"tree_param":{"num_deleted":"0","num_feature":"2500","num_nodes":"13","size_leaf_vector":"1"}},{"base_weights":[5.828353E-3,3.0993003E-2,-5.1009053E-1,-3.5157166E-2,6.4038074E-1,5.1072086E-3,-1.117086E0,7.800049E-1,-6.470948E-2,3.2243356E-2,-4.547581E-1,-4.1149634E-1,-3.9895352E-2,8.434255E-1,2.3364196E-2,-7.7012973E-3,2.8130004E-1,2.7416027E-1,6.369008E-2,1.41985295E-2,-2.168816E-1],"categories":[],"categories_nodes":[],"categories_segments":[],"categories_sizes":[],"default_left":[0,0,0,0,0,0,0,0,0,0,0,0,0,0,0,0,0,0,0,0,0],"id":7,"left_children":[1,3,-1,5,7,9,11,13,-1,15,-1,-1,-1,17,-1,19,-1,-1,-1,-1,-1],"loss_changes":[6.121226E0,5.677056E0,0E0,5.559346E0,1.8162985E0,5.162874E0,9.646559E-1,4.7182608E-1,0E0,4.445371E0,0E0,0E0,0E0,2.9365587E-1,0E0,4.699087E0,0E0,0E0,0E0,0E0,0E0],"parents":[2147483647,0,0,1,1,3,3,4,4,5,5,6,6,7,7,9,9,13,13,15,15],"right_children":[2,4,-1,6,8,10,12,14,-1,16,-1,-1,-1,18,-1,20,-1,-1,-1,-1,-1],"split_conditions":[5E-1,2.5E-1,-5.1009053E-1,5E-1,5E-1,5E-1,3.3333334E-1,2.5E-1,-6.470948E-2,5E-1,-4.547581E-1,-4.1149634E-1,-3.9895352E-2,3.3333334E-1,2.3364196E-2,3.3333334E-1,2.8130004E-1,2.7416027E-1,6.369008E-2,1.41985295E-2,-2.168816E-1],"split_indices":[1719,1303,0,1373,2046,1432,1276,2470,0,793,0,0,0,1276,0,2265,0,0,0,0,0],"split_type":[0,0,0,0,0,0,0,0,0,0,0,0,0,0,0,0,0,0,0,0,0],"sum_hessian":[1.4034494E2,1.3927257E2,1.0723733E0,1.26484726E2,1.2787845E1,1.2290601E2,3.5787122E0,1.1071049E1,1.7167954E0,1.2171329E2,1.1927314E0,2.530346E0,1.0483663E0,9.969306E0,1.1017426E0,1.17520134E2,4.1931534E0,8.565308E0,1.403999E0,1.09991325E2,7.5288067E0],"tree_param":{"num_deleted":"0","num_feature":"2500","num_nodes":"21","size_leaf_vector":"1"}},{"base_weights":[1.1805268E-3,-7.8336954E-2,4.440669E-1,-1.5103127E-1,5.0924325E-1,5.8017385E-1,-2.5099874E-1,-9.9113695E-2,-1.116913E0,7.1546817E-1,-1.8852283E-1,6.851207E-1,-1.4870588E-1,3.3292755E-2,-2.0356955E-1,-5.6785867E-2,-3.61652E-1,-5.775214E-1,-4.67872E-1,2.7606094E-1,1.401177E-2,7.730854E-1,-4.1858952E-2,-2.2108493E-2,-4.3938166E-1,-4.1882314E-2,-2.5160185E-1,8.8159394E-1,1.2154928E-2,2.0068986E-3,-3.9840198E-1,2.9402813E-1,-1.1211105E-2],"categories":[],"categories_nodes":[],"categories_segments":[],"categories_sizes":[],"default_left":[0,0,0,0,0,0,0,0,0,0,0,0,0,0,0,0,0,0,0,0,0,0,0,0,0,0,0,0,0,0,0,0,0],"id":8,"left_children":[1,3,5,7,9,11,13,15,17,19,-1,21,-1,-1,-1,23,-1,25,-1,-1,-1,27,-1,29,-1,-1,-1,31,-1,-1,-1,-1,-1],"loss_changes":[4.9105635E0,5.1267376E0,2.1534705E0,5.2037926E0,3.557036E0,2.3776393E0,7.2122765E-1,4.692933E0,3.6683655E-1,1.5562434E0,0E0,1.3313231E0,0E0,0E0,0E0,4.799496E0,0E0,3.3818197E-1,0E0,0E0,0E0,1.1878805E0,0E0,3.6797602E0,0E0,0E0,0E0,1.2458582E0,0E0,0E0,0E0,0E0,0E0],"parents":[2147483647,0,0,1,1,2,2,3,3,4,4,5,5,6,6,7,7,8,8,9,9,11,11,15,15,17,17,21,21,23,23,27,27],"right_children":[2,4,6,8,10,12,14,16,18,20,-1,22,-1,-1,-1,24,-1,26,-1,-1,-1,28,-1,30,-1,-1,-1,32,-1,-1,-1,-1,-1],"split_conditions":[2.5E-1,3.3333334E-1,2.5E-1,5E-1,5E-1,3.3333334E-1,2.5E-1,5E-1,1.6666667E-1,3.3333334E-1,-1.8852283E-1,5E-1,-1.4870588E-1,3.3292755E-2,-2.0356955E-1,3.3333334E-1,-3.61652E-1,1.1111111E-1,-4.67872E-1,2.7606094E-1,1.401177E-2,1.6666667E-1,-4.1858952E-2,1E0,-4.3938166E-1,-4.1882314E-2,-2.5160185E-1,5E-1,1.2154928E-2,2.0068986E-3,-3.9840198E-1,2.9402813E-1,-1.1211105E-2],"split_indices":[1390,1053,1117,678,1034,1695,2212,1373,649,1670,0,1691,0,0,0,2387,0,749,0,0,0,649,0,2166,0,0,0,2394,0,0,0,0,0],"split_type":[0,0,0,0,0,0,0,0,0,0,0,0,0,0,0,0,0,0,0,0,0,0,0,0,0,0,0,0,0,0,0,0,0],"sum_hessian":[1.3744872E2,1.17224846E2,2.0223867E1,1.0497989E2,1.2244954E1,1.7050377E1,3.173489E0,1.0067127E2,4.308616E0,1.0680058E1,1.564897E0,1.5865896E1,1.1844815E0,2.1195455E0,1.0539438E0,9.797434E1,2.6969285E0,2.980937E0,1.3276792E0,7.888953E0,2.791104E0,1.4393125E1,1.4727715E0,9.6610344E1,1.3639992E0,1.6868744E0,1.2940625E0,1.2359065E1,2.0340595E0,9.549924E1,1.1111078E0,1.1102515E1,1.25655E0],"tree_param":{"num_deleted":"0","num_feature":"2500","num_nodes":"33","size_leaf_vector":"1"}},{"base_weights":[-7.669926E-3,-4.3794587E-2,2.8294852E-1,-7.037876E-3,-9.8047656E-1,-6.6126E-2,6.4546853E-1,-1.2977172E-1,-3.610021E-1,-1.0241173E-1,2.532132E-1,2.666331E-1,9.007279E-2,-1.3862619E-1,2.6279724E-1,1.0087032E-1,-9.87429E-2,-5.2836627E-2,2.5885794E-1],"categories":[],"categories_nodes":[],"categories_segments":[],"categories_sizes":[],"default_left":[0,0,0,0,0,0,0,0,0,0,0,0,0,0,0,0,0,0,0],"id":9,"left_children":[1,3,-1,5,7,9,11,-1,-1,13,-1,-1,15,17,-1,-1,-1,-1,-1],"loss_changes":[4.69333E0,4.5183043E0,0E0,4.9576764E0,8.459759E-2,3.9769418E0,1.3629279E0,0E0,0E0,4.166957E0,0E0,0E0,5.6118566E-1,4.3188515E0,0E0,0E0,0E0,0E0,0E0],"parents":[2147483647,0,0,1,1,3,3,4,4,5,5,6,6,9,9,12,12,13,13],"right_children":[2,4,-1,6,8,10,12,-1,-1,14,-1,-1,16,18,-1,-1,-1,-1,-1],"split_conditions":[5E-1,5E-1,2.8294852E-1,2.5E-1,2.5E-1,5E-1,1.1111111E-1,-1.2977172E-1,-3.610021E-1,5E-1,2.532132E-1,2.666331E-1,2E-1,5E-1,2.6279724E-1,1.0087032E-1,-9.87429E-2,-5.2836627E-2,2.5885794E-1],"split_indices":[101,2063,0,1303,2458,974,749,0,0,1572,0,0,1989,248,0,0,0,0,0],"split_type":[0,0,0,0,0,0,0,0,0,0,0,0,0,0,0,0,0,0,0],"sum_hessian":[1.3443614E2,1.3043451E2,4.001619E0,1.2647882E2,3.9556925E0,1.1680054E2,9.678286E0,1.994137E0,1.9615556E0,1.1317603E2,3.6245067E0,6.3125978E0,3.3656886E0,1.0996415E2,3.2118847E0,2.2452388E0,1.1204497E0,1.0679004E2,3.1741073E0],"tree_param":{"num_deleted":"0","num_feature":"2500","num_nodes":"19","size_leaf_vector":"1"}},{"base_weights":[5.3987578E-3,-8.100828E-2,3.610082E-1,-5.2311666E-2,-4.7101426E-1,4.5900336E-1,-2.0743625E-1,-9.42346E-2,2.613019E-1,5.295413E-1,-6.352744E-2,-1.4222987E-1,6.2955034E-1,6.001418E-1,-1.4402086E-1,-8.942695E-2,-9.9163985E-1,2.4268892E-1,-7.549764E-3,6.603021E-1,-7.4567504E-2,-1.3040689E-2,-2.8163648E-1,-3.8010958E-1,-1.0336239E-2,2.1719468E-1,-6.9842465E-2],"categories":[],"categories_nodes":[],"categories_segments":[],"categories_sizes":[],"default_left":[0,0,0,0,0,0,0,0,0,0,0,0,0,0,0,0,0,0,0,0,0,0,0,0,0,0,0],"id":10,"left_children":[1,3,5,7,-1,9,-1,11,-1,13,-1,15,17,19,-1,21,23,-1,-1,25,-1,-1,-1,-1,-1,-1,-1],"loss_changes":[4.181367E0,4.5981264E0,3.0606732E0,4.281669E0,0E0,1.2918715E0,0E0,3.7260714E0,0E0,1.9166327E0,0E0,4.3511276E0,8.067045E-1,1.2771058E0,0E0,3.6399941E0,1.4573803E0,0E0,0E0,1.3417845E0,0E0,0E0,0E0,0E0,0E0,0E0,0E0],"parents":[2147483647,0,0,1,1,2,2,3,3,5,5,7,7,9,9,11,11,12,12,13,13,15,15,16,16,19,19],"right_children":[2,4,6,8,-1,10,-1,12,-1,14,-1,16,18,20,-1,22,24,-1,-1,26,-1,-1,-1,-1,-1,-1,-1],"split_conditions":[3.3333334E-1,6.666667E-1,5E-1,3.3333334E-1,-4.7101426E-1,5E-1,-2.0743625E-1,5E-1,2.613019E-1,5E-1,-6.352744E-2,2.5E-1,2.5E-1,3.3333334E-1,-1.4402086E-1,2E-1,2.5E-1,2.4268892E-1,-7.549764E-3,5E-1,-7.4567504E-2,-1.3040689E-2,-2.8163648E-1,-3.8010958E-1,-1.0336239E-2,2.1719468E-1,-6.9842465E-2],"split_indices":[1276,161,2044,1261,0,2394,0,2421,0,4,0,503,2470,540,0,2284,2345,0,0,1235,0,0,0,0,0,0,0],"split_type":[0,0,0,0,0,0,0,0,0,0,0,0,0,0,0,0,0,0,0,0,0,0,0,0,0,0,0],"sum_hessian":[1.3412875E2,1.0853001E2,2.5598743E1,1.0749353E2,1.036473E0,2.3934107E1,1.6646373E0,1.0368375E2,3.809786E0,2.1847172E1,2.0869343E0,9.798941E1,5.6943345E0,2.0798347E1,1.0488238E0,9.3295074E1,4.6943364E0,4.284621E0,1.409714E0,1.9628931E1,1.1694174E0,8.950333E1,3.791747E0,3.3941107E0,1.3002257E0,1.8499275E1,1.1296554E0],"tree_param":{"num_deleted":"0","num_feature":"2500","num_nodes":"27","size_leaf_vector":"1"}},{"base_weights":[1.6780739E-3,-3.7882198E-2,2.4467622E-1,-7.332618E-2,2.6802948E-1,-1.0488707E-1,2.6003256E-1,-1.3647713E-1,2.5942644E-1,-1.6755831E-1,2.4625923E-1,-6.0833525E-2,1.9009662E-1],"categories":[],"categories_nodes":[],"categories_segments":[],"categories_sizes":[],"default_left":[0,0,0,0,0,0,0,0,0,0,0,0,0],"id":11,"left_children":[1,3,-1,5,-1,7,-1,9,-1,11,-1,-1,-1],"loss_changes":[4.312573E0,4.2831135E0,0E0,3.770321E0,0E0,3.8204927E0,0E0,3.646386E0,0E0,3.3749447E0,0E0,0E0,0E0],"parents":[2147483647,0,0,1,1,3,3,5,5,7,7,9,9],"right_children":[2,4,-1,6,-1,8,-1,10,-1,12,-1,-1,-1],"split_conditions":[5E-1,5E-1,2.4467622E-1,5E-1,2.6802948E-1,5E-1,2.6003256E-1,5E-1,2.5942644E-1,5E-1,2.4625923E-1,-6.0833525E-2,1.9009662E-1],"split_indices":[744,1282,0,793,0,101,0,248,0,1785,0,0,0],"split_type":[0,0,0,0,0,0,0,0,0,0,0,0,0],"sum_hessian":[1.3197765E2,1.2676943E2,5.2082043E0,1.2300921E2,3.7602248E0,1.19873276E2,3.1359313E0,1.1692327E2,2.9500043E0,1.1404562E2,2.877648E0,1.09958916E2,4.0867114E0],"tree_param":{"num_deleted":"0","num_feature":"2500","num_nodes":"13","size_leaf_vector":"1"}},{"base_weights":[1.633623E-2,4.0687177E-2,-2.8330013E-1,8.890628E-3,2.5760043E-1,-1.742015E-2,2.4815203E-1,-4.0694743E-2,2.6196462E-1,-1.0834021E-2,-2.50256E-1,-1.55605925E-2,1.7944662E-1],"categories":[],"categories_nodes":[],"categories_segments":[],"categories_sizes":[],"default_left":[0,0,0,0,0,0,0,0,0,0,0,0,0],"id":12,"left_children":[1,3,-1,5,-1,7,-1,9,-1,11,-1,-1,-1],"loss_changes":[3.1614273E0,3.4036717E0,0E0,2.7543087E0,0E0,2.6116867E0,0E0,2.8832495E0,0E0,2.9961271E0,0E0,0E0,0E0],"parents":[2147483647,0,0,1,1,3,3,5,5,7,7,9,9],"right_children":[2,4,-1,6,-1,8,-1,10,-1,12,-1,-1,-1],"split_conditions":[1E0,5E-1,-2.8330013E-1,5E-1,2.5760043E-1,3.3333334E-1,2.4815203E-1,5E-1,2.6196462E-1,2.5E-1,-2.50256E-1,-1.55605925E-2,1.7944662E-1],"split_indices":[359,744,0,1282,0,1976,0,2063,0,1303,0,0,0],"split_type":[0,0,0,0,0,0,0,0,0,0,0,0,0],"sum_hessian":[1.3250043E2,1.3015881E2,2.341603E0,1.2626164E2,3.8971734E0,1.23276566E2,2.9850802E0,1.2106708E2,2.2094855E0,1.176532E2,3.413877E0,1.11083084E2,6.5701165E0],"tree_param":{"num_deleted":"0","num_feature":"2500","num_nodes":"13","size_leaf_vector":"1"}},{"base_weights":[1.705913E-2,3.848147E-2,-3.0623505E-1,6.482238E-2,-9.370323E-1,8.7008804E-2,-3.2334217E-1,-3.2533276E-1,-8.862162E-2,1.06957264E-1,-3.58274E-1,1.27338E-1,-3.1105363E-1,4.5556694E-2,-2.6178467E-1],"categories":[],"categories_nodes":[],"categories_segments":[],"categories_sizes":[],"default_left":[0,0,0,0,0,0,0,0,0,0,0,0,0,0,0],"id":13,"left_children":[1,3,-1,5,7,9,-1,-1,-1,11,-1,13,-1,-1,-1],"loss_changes":[2.9749072E0,3.4097507E0,0E0,3.3346567E0,9.876728E-3,3.3566422E0,0E0,0E0,0E0,3.0532534E0,0E0,3.1727817E0,0E0,0E0,0E0],"parents":[2147483647,0,0,1,1,3,3,4,4,5,5,9,9,11,11],"right_children":[2,4,-1,6,8,10,-1,-1,-1,12,-1,14,-1,-1,-1],"split_conditions":[1E0,5E-1,-3.0623505E-1,5E-1,1.1111111E-1,5E-1,-3.2334217E-1,-3.2533276E-1,-8.862162E-2,1E0,-3.58274E-1,5E-1,-3.1105363E-1,4.5556694E-2,-2.6178467E-1],"split_indices":[2166,1776,0,1796,749,1719,0,0,0,509,0,1375,0,0,0],"split_type":[0,0,0,0,0,0,0,0,0,0,0,0,0,0,0],"sum_hessian":[1.3103902E2,1.2933237E2,1.7066565E0,1.2684094E2,2.4914198E0,1.2533124E2,1.5097029E0,1.4647554E0,1.0266645E0,1.2431229E2,1.0189539E0,1.2300913E2,1.3031557E0,1.2089312E2,2.116014E0],"tree_param":{"num_deleted":"0","num_feature":"2500","num_nodes":"15","size_leaf_vector":"1"}},{"base_weights":[-1.7049208E-3,-3.1645786E-2,7.1035564E-1,-5.6851916E-2,2.4461886E-1,2.604395E-1,6.812436E-3,-8.750093E-2,6.339232E-1,-1.1227129E-1,2.3676758E-1,2.5621137E-1,-2.8193653E-2,-1.6491205E-1,2.972995E-1,-6.245107E-2,1.7406239E-1,1.5905279E-1,-1.1360364E-1],"categories":[],"categories_nodes":[],"categories_segments":[],"categories_sizes":[],"default_left":[0,0,0,0,0,0,0,0,0,0,0,0,0,0,0,0,0,0,0],"id":14,"left_children":[1,3,5,7,-1,-1,-1,9,11,13,-1,-1,-1,15,17,-1,-1,-1,-1],"loss_changes":[2.7617197E0,2.6993194E0,5.4740405E-1,2.6299496E0,0E0,0E0,0E0,2.6362824E0,9.274161E-1,2.527698E0,0E0,0E0,0E0,3.425112E0,2.3180704E0,0E0,0E0,0E0,0E0],"parents":[2147483647,0,0,1,1,2,2,3,3,7,7,8,8,9,9,13,13,14,14],"right_children":[2,4,6,8,-1,-1,-1,10,12,14,-1,-1,-1,16,18,-1,-1,-1,-1],"split_conditions":[5E-1,5E-1,2.5E-1,1E0,2.4461886E-1,2.604395E-1,6.812436E-3,5E-1,2.5E-1,3.3333334E-1,2.3676758E-1,2.5621137E-1,-2.8193653E-2,5E-1,2.5E-1,-6.245107E-2,1.7406239E-1,1.5905279E-1,-1.1360364E-1],"split_indices":[1428,793,2003,851,0,0,0,101,104,1053,0,0,0,2421,1117,0,0,0,0],"split_type":[0,0,0,0,0,0,0,0,0,0,0,0,0,0,0,0,0,0,0],"sum_hessian":[1.27483925E2,1.2325676E2,4.2271676E0,1.2060082E2,2.6559367E0,3.2247949E0,1.0023726E0,1.1631344E2,4.2873836E0,1.13965485E2,2.3479526E0,3.1588676E0,1.1285158E0,1.015154E2,1.2450082E1,9.662636E1,4.88905E0,9.420413E0,3.029668E0],"tree_param":{"num_deleted":"0","num_feature":"2500","num_nodes":"19","size_leaf_vector":"1"}},{"base_weights":[1.1730291E-2,3.4161486E-2,-4.281046E-1,-1.4501781E-2,4.975741E-1,2.0923521E-2,-7.3926014E-1,6.223658E-1,-1.2764919E-1,-1.1417758E-2,2.590384E-1,-3.8519257E-1,-3.132423E-1,8.1987774E-1,-1.7575501E-1,1.20294215E-2,-3.265566E-1,-2.469129E-3,-2.2899462E-1,2.6807746E-1,4.1628353E-2,1.1033634E-2,-2.8745154E-1],"categories":[],"categories_nodes":[],"categories_segments":[],"categories_sizes":[],"default_left":[0,0,0,0,0,0,0,0,0,0,0,0,0,0,0,0,0,0,0,0,0,0,0],"id":15,"left_children":[1,3,-1,5,7,9,11,13,-1,15,-1,17,-1,19,-1,21,-1,-1,-1,-1,-1,-1,-1],"loss_changes":[4.209237E0,2.8918238E0,0E0,3.0124788E0,1.6683276E0,3.0688713E0,1.8798494E-1,3.138547E0,0E0,2.7684078E0,0E0,5.801372E-1,0E0,3.7762022E-1,0E0,2.6228585E0,0E0,0E0,0E0,0E0,0E0,0E0,0E0],"parents":[2147483647,0,0,1,1,3,3,4,4,5,5,6,6,7,7,9,9,11,11,13,13,15,15],"right_children":[2,4,-1,6,8,10,12,14,-1,16,-1,18,-1,20,-1,22,-1,-1,-1,-1,-1,-1,-1],"split_conditions":[1E0,3.3333334E-1,-4.281046E-1,3.3333334E-1,1E0,1E0,3.3333334E-1,2.5E-1,-1.2764919E-1,1E0,2.590384E-1,1.1111111E-1,-3.132423E-1,2.5E-1,-1.7575501E-1,5E-1,-3.265566E-1,-2.469129E-3,-2.2899462E-1,2.6807746E-1,4.1628353E-2,1.1033634E-2,-2.8745154E-1],"split_indices":[2002,1030,0,1806,601,2410,161,342,0,2423,0,749,0,1390,0,1776,0,0,0,0,0,0,0],"split_type":[0,0,0,0,0,0,0,0,0,0,0,0,0,0,0,0,0,0,0,0,0,0,0],"sum_hessian":[1.2791633E2,1.26913895E2,1.002433E0,1.15729744E2,1.1184151E1,1.112625E2,4.467244E0,1.0139182E1,1.0449681E0,1.0809949E2,3.1630106E0,3.114129E0,1.3531152E0,8.990829E0,1.1483532E0,1.067642E2,1.3352883E0,2.0711265E0,1.0430026E0,7.831334E0,1.1594954E0,1.050466E2,1.7175956E0],"tree_param":{"num_deleted":"0","num_feature":"2500","num_nodes":"23","size_leaf_vector":"1"}},{"base_weights":[1.0530229E-3,-5.3473964E-2,3.715031E-1,-1.2295791E-2,-8.823451E-1,5.8289266E-1,-2.8719634E-1,2.6141252E-2,-7.634461E-1,-3.235351E-1,-3.8235538E-2,7.3075736E-1,-6.385259E-2,-7.69272E-1,1.575939E-1,5.5029497E-2,-3.04899E-1,-1.0360945E0,1.1579623E-2,8.708794E-1,-3.549872E-2,-2.968005E-1,-3.945411E-2,9.9329405E-2,-6.145451E-1,-3.611275E-1,-8.850881E-2,2.8802374E-1,1.0363986E-1,4.2911567E-2,-1.6484404E-1,-2.738166E-1,8.692138E-2],"categories":[],"categories_nodes":[],"categories_segments":[],"categories_sizes":[],"default_left":[0,0,0,0,0,0,0,0,0,0,0,0,0,0,0,0,0,0,0,0,0,0,0,0,0,0,0,0,0,0,0,0,0],"id":16,"left_children":[1,3,5,7,9,11,13,15,17,-1,-1,19,-1,21,-1,23,-1,25,-1,27,-1,-1,-1,29,31,-1,-1,-1,-1,-1,-1,-1,-1],"loss_changes":[2.576604E0,3.7848408E0,2.4462442E0,3.108076E0,6.396313E-1,1.6521778E0,2.223934E0,3.1493304E0,1.1858246E0,0E0,0E0,1.4061036E0,0E0,3.3608687E-1,0E0,3.0538883E0,0E0,1.3519955E-1,0E0,1.14518166E-1,0E0,0E0,0E0,2.7868047E0,1.9902363E0,0E0,0E0,0E0,0E0,0E0,0E0,0E0,0E0],"parents":[2147483647,0,0,1,1,2,2,3,3,4,4,5,5,6,6,7,7,8,8,11,11,13,13,15,15,17,17,19,19,23,23,24,24],"right_children":[2,4,6,8,10,12,14,16,18,-1,-1,20,-1,22,-1,24,-1,26,-1,28,-1,-1,-1,30,32,-1,-1,-1,-1,-1,-1,-1,-1],"split_conditions":[2.5E-1,3.3333334E-1,2E-1,5E-1,3.3333334E-1,3.3333334E-1,3.3333334E-1,3.3333334E-1,2.5E-1,-3.235351E-1,-3.8235538E-2,3.3333334E-1,-6.385259E-2,1.1111111E-1,1.575939E-1,5E-1,-3.04899E-1,2.5E-1,1.1579623E-2,2.5E-1,-3.549872E-2,-2.968005E-1,-3.945411E-2,2.5E-1,2.5E-1,-3.611275E-1,-8.850881E-2,2.8802374E-1,1.0363986E-1,4.2911567E-2,-1.6484404E-1,-2.738166E-1,8.692138E-2],"split_indices":[1390,820,1989,1235,1276,1386,1276,2387,2345,0,0,1806,0,749,0,2394,0,2458,0,104,0,0,0,503,1484,0,0,0,0,0,0,0,0],"split_type":[0,0,0,0,0,0,0,0,0,0,0,0,0,0,0,0,0,0,0,0,0,0,0,0,0,0,0,0,0,0,0,0,0],"sum_hessian":[1.2557416E2,1.1020814E2,1.5366015E1,1.05958954E2,4.249188E0,1.1719942E1,3.646073E0,1.0171909E2,4.23986E0,3.032735E0,1.2164528E0,9.952255E0,1.7676873E0,2.3217523E0,1.3243207E0,9.9898E1,1.8210921E0,2.9464297E0,1.2934302E0,8.52048E0,1.4317744E0,1.3162886E0,1.0054638E0,9.4497574E1,5.400426E0,1.8936377E0,1.0527921E0,6.5766706E0,1.9438097E0,8.926358E1,5.2339945E0,4.0542517E0,1.3461745E0],"tree_param":{"num_deleted":"0","num_feature":"2500","num_nodes":"33","size_leaf_vector":"1"}},{"base_weights":[-5.1667523E-3,-3.0958239E-2,2.1298821E-1,-1.0474801E-2,-3.36058E-1,-5.14164E-2,4.2258415E-1,-1.1158461E-2,-5.9352416E-1,6.0427976E-1,-8.0711424E-2,1.7801588E-2,-8.742921E-1,-8.037694E-1,1.0043769E-1,6.53809E-1,4.4444438E-2,1.3288132E-2,-2.9086125E-1,-3.7410164E-1,-2.3932626E-2,-2.899924E-1,1.2257933E-2,2.2937126E-1,2.0616598E-2],"categories":[],"categories_nodes":[],"categories_segments":[],"categories_sizes":[],"default_left":[0,0,0,0,0,0,0,0,0,0,0,0,0,0,0,0,0,0,0,0,0,0,0,0,0],"id":17,"left_children":[1,3,-1,5,-1,7,9,11,13,15,-1,17,19,21,-1,23,-1,-1,-1,-1,-1,-1,-1,-1,-1],"loss_changes":[2.3142648E0,2.686015E0,0E0,2.1438768E0,0E0,2.3993778E0,1.4753681E0,2.6062655E0,1.7527862E0,9.700847E-2,0E0,2.69154E0,9.027674E-1,9.3260145E-1,0E0,4.3011808E-1,0E0,0E0,0E0,0E0,0E0,0E0,0E0,0E0,0E0],"parents":[2147483647,0,0,1,1,3,3,5,5,6,6,7,7,8,8,9,9,11,11,12,12,13,13,15,15],"right_children":[2,4,-1,6,-1,8,10,12,14,16,-1,18,20,22,-1,24,-1,-1,-1,-1,-1,-1,-1,-1,-1],"split_conditions":[5E-1,1E0,2.1298821E-1,3.3333334E-1,-3.36058E-1,3.3333334E-1,5E-1,3.3333334E-1,1E0,3.3333334E-1,-8.0711424E-2,5E-1,2.5E-1,5E-1,1.0043769E-1,3.3333334E-1,4.4444438E-2,1.3288132E-2,-2.9086125E-1,-3.7410164E-1,-2.3932626E-2,-2.899924E-1,1.2257933E-2,2.2937126E-1,2.0616598E-2],"split_indices":[744,2002,0,1030,0,2265,1691,1769,1014,1276,0,920,2212,117,0,1007,0,0,0,0,0,0,0,0,0],"split_type":[0,0,0,0,0,0,0,0,0,0,0,0,0,0,0,0,0,0,0,0,0,0,0,0,0],"sum_hessian":[1.23282196E2,1.1991413E2,3.3680632E0,1.1869171E2,1.2224218E0,1.0924492E2,9.446795E0,1.02643036E2,6.6018815E0,7.581382E0,1.8654137E0,1.00258514E2,2.38452E0,5.4921765E0,1.1097046E0,6.4478607E0,1.1335213E0,9.856886E1,1.6896517E0,1.235448E0,1.1490719E0,4.483212E0,1.0089649E0,5.1635866E0,1.284274E0],"tree_param":{"num_deleted":"0","num_feature":"2500","num_nodes":"25","size_leaf_vector":"1"}},{"base_weights":[-7.2388207E-3,-3.6434125E-2,6.042487E-1,-6.29657E-2,6.4635134E-1,2.4344264E-1,3.9891038E-2,-1.2770802E-1,2.5556973E-1,2.3527183E-1,2.4936683E-2,-1.0150842E-1,-3.892819E-1,3.9474005E-1,-4.4131747E-1,-1.2800226E-1,2.2037308E-1,5.7257557E-1,-1.356142E-1,-2.2487208E-1,3.9995704E-2,-4.6706792E-2,2.1940374E-1,1.9885105E-1,-8.6898044E-2],"categories":[],"categories_nodes":[],"categories_segments":[],"categories_sizes":[],"default_left":[0,0,0,0,0,0,0,0,0,0,0,0,0,0,0,0,0,0,0,0,0,0,0,0,0],"id":18,"left_children":[1,3,5,7,9,-1,-1,11,13,-1,-1,15,-1,17,19,21,-1,23,-1,-1,-1,-1,-1,-1,-1],"loss_changes":[2.2161958E0,2.1828048E0,4.446237E-1,2.3988132E0,2.852075E-1,0E0,0E0,2.8114433E0,2.086204E0,0E0,0E0,2.198464E0,0E0,2.8128777E0,7.6485705E-1,2.3251023E0,0E0,1.3172059E0,0E0,0E0,0E0,0E0,0E0,0E0,0E0],"parents":[2147483647,0,0,1,1,2,2,3,3,4,4,7,7,8,8,11,11,13,13,14,14,15,15,17,17],"right_children":[2,4,6,8,10,-1,-1,12,14,-1,-1,16,-1,18,20,22,-1,24,-1,-1,-1,-1,-1,-1,-1],"split_conditions":[3.3333334E-1,1E0,3.3333334E-1,3.3333334E-1,2.5E-1,2.4344264E-1,3.9891038E-2,1E0,2.5E-1,2.3527183E-1,2.4936683E-2,5E-1,-3.892819E-1,5E-1,5E-1,5E-1,2.2037308E-1,2.5E-1,-1.356142E-1,-2.2487208E-1,3.9995704E-2,-4.6706792E-2,2.1940374E-1,1.9885105E-1,-8.6898044E-2],"split_indices":[1261,851,1276,1276,104,0,0,2002,715,0,0,248,0,1721,1691,1428,0,2285,0,0,0,0,0,0,0],"split_type":[0,0,0,0,0,0,0,0,0,0,0,0,0,0,0,0,0,0,0,0,0,0,0,0,0],"sum_hessian":[1.2190561E2,1.17248055E2,4.6575594E0,1.1373629E2,3.5117652E0,2.7336721E0,1.9238874E0,9.502212E1,1.8714169E1,2.5058835E0,1.0058818E0,9.400369E1,1.0184242E0,1.59604E1,2.7537694E0,9.1937294E1,2.0664012E0,1.3457905E1,2.5024953E0,1.5941681E0,1.1596012E0,8.986092E1,2.0763707E0,1.2391939E1,1.065965E0],"tree_param":{"num_deleted":"0","num_feature":"2500","num_nodes":"25","size_leaf_vector":"1"}},{"base_weights":[1.8618378E-3,-2.0065919E-2,1.9966325E-1,-4.7075313E-2,2.1343002E-1,-7.256135E-2,2.0464264E-1,-1.1877403E-1,3.1356525E-1,-1.7176071E-1,3.2855806E-1,4.960627E-1,-2.232014E-1,-6.085773E-2,1.7550837E-1,1.7712958E-1,-1.2317882E-1,2.1183136E-1,-1.523269E-1,-1.3669467E-1,5.319215E-2],"categories":[],"categories_nodes":[],"categories_segments":[],"categories_sizes":[],"default_left":[0,0,0,0,0,0,0,0,0,0,0,0,0,0,0,0,0,0,0,0,0],"id":19,"left_children":[1,3,-1,5,-1,7,-1,9,11,13,15,17,19,-1,-1,-1,-1,-1,-1,-1,-1],"loss_changes":[1.7958975E0,2.395266E0,0E0,2.2094364E0,0E0,2.0571687E0,0E0,2.4699523E0,1.3229195E0,2.2767763E0,2.3962584E0,2.3710635E0,4.373021E-1,0E0,0E0,0E0,0E0,0E0,0E0,0E0,0E0],"parents":[2147483647,0,0,1,1,3,3,5,5,7,7,8,8,9,9,10,10,11,11,12,12],"right_children":[2,4,-1,6,-1,8,-1,10,12,14,16,18,20,-1,-1,-1,-1,-1,-1,-1,-1],"split_conditions":[5E-1,2.5E-1,1.9966325E-1,1E0,2.1343002E-1,3.3333334E-1,2.0464264E-1,2.5E-1,2.5E-1,5E-1,2E-1,5E-1,1.1111111E-1,-6.085773E-2,1.7550837E-1,1.7712958E-1,-1.2317882E-1,2.1183136E-1,-1.523269E-1,-1.3669467E-1,5.319215E-2],"split_indices":[1572,1206,0,195,0,1053,0,1390,1117,828,1989,1034,749,0,0,0,0,0,0,0,0],"split_type":[0,0,0,0,0,0,0,0,0,0,0,0,0,0,0,0,0,0,0,0,0],"sum_hessian":[1.2148574E2,1.1853903E2,2.9467092E0,1.1522036E2,3.3186746E0,1.1219949E2,3.0208616E0,1.008249E2,1.1374599E1,9.069774E1,1.0127154E1,8.545136E0,2.829463E0,8.78209E1,2.8768394E0,7.6264095E0,2.5007443E0,7.311781E0,1.2333554E0,1.7032522E0,1.1262109E0],"tree_param":{"num_deleted":"0","num_feature":"2500","num_nodes":"21","size_leaf_vector":"1"}},{"base_weights":[1.1346225E-2,2.6745403E-2,-2.6199228E-1,4.5139445E-3,2.3314613E-1,-1.2887691E-2,2.4981248E-1,1.1005388E-2,-7.67567E-1,3.0038789E-2,-2.921907E-1,-2.845305E-1,-5.5531126E-2,1.6748406E-2,-1.9874598E-1],"categories":[],"categories_nodes":[],"categories_segments":[],"categories_sizes":[],"default_left":[0,0,0,0,0,0,0,0,0,0,0,0,0,0,0],"id":20,"left_children":[1,3,-1,5,-1,7,-1,9,11,13,-1,-1,-1,-1,-1],"loss_changes":[1.6963824E0,2.0264153E0,0E0,1.7283934E0,0E0,2.1310449E0,0E0,2.1868727E0,2.0650196E-1,2.070794E0,0E0,0E0,0E0,0E0,0E0],"parents":[2147483647,0,0,1,1,3,3,5,5,7,7,8,8,9,9],"right_children":[2,4,-1,6,-1,8,-1,10,12,14,-1,-1,-1,-1,-1],"split_conditions":[1E0,5E-1,-2.6199228E-1,1E0,2.3314613E-1,3.3333334E-1,2.4981248E-1,5E-1,1.1111111E-1,5E-1,-2.921907E-1,-2.845305E-1,-5.5531126E-2,1.6748406E-2,-1.9874598E-1],"split_indices":[995,1428,0,1716,0,1830,0,1432,749,2063,0,0,0,0,0],"split_type":[0,0,0,0,0,0,0,0,0,0,0,0,0,0,0],"sum_hessian":[1.2180943E2,1.2067854E2,1.1308854E0,1.1818328E2,2.4952607E0,1.16715355E2,1.4679303E0,1.1408873E2,2.6266217E0,1.1287703E2,1.2117049E0,1.5248151E0,1.1018066E0,1.09710846E2,3.166181E0],"tree_param":{"num_deleted":"0","num_feature":"2500","num_nodes":"15","size_leaf_vector":"1"}},{"base_weights":[4.2861234E-3,-1.32033955E-2,2.3588234E-1,1.2549007E-2,-5.724524E-1,-1.021576E-2,2.3058778E-1,-2.1403399E-1,-2.5955203E-1,-3.1910773E-2,2.256202E-1,1.21266E-2,-1.3105084E-1,-5.2452788E-2,2.1547641E-1,-2.2771617E-2,1.8483886E-1],"categories":[],"categories_nodes":[],"categories_segments":[],"categories_sizes":[],"default_left":[0,0,0,0,0,0,0,0,0,0,0,0,0,0,0,0,0],"id":21,"left_children":[1,3,-1,5,7,9,-1,11,-1,13,-1,-1,-1,15,-1,-1,-1],"loss_changes":[1.6694086E0,1.7301517E0,0E0,1.9931781E0,3.6960828E-1,1.8921264E0,0E0,2.2775634E-1,0E0,1.7450117E0,0E0,0E0,0E0,1.7523378E0,0E0,0E0,0E0],"parents":[2147483647,0,0,1,1,3,3,4,4,5,5,7,7,9,9,13,13],"right_children":[2,4,-1,6,8,10,-1,12,-1,14,-1,-1,-1,16,-1,-1,-1],"split_conditions":[3.3333334E-1,5E-1,2.3588234E-1,1E0,3.3333334E-1,5E-1,2.3058778E-1,2.5E-1,-2.5955203E-1,5E-1,2.256202E-1,1.21266E-2,-1.3105084E-1,5E-1,2.1547641E-1,-2.2771617E-2,1.8483886E-1],"split_indices":[1976,200,0,195,2185,1572,0,1880,0,248,0,0,0,744,0,0,0],"split_type":[0,0,0,0,0,0,0,0,0,0,0,0,0,0,0,0,0],"sum_hessian":[1.2030407E2,1.1863388E2,1.6701844E0,1.14346016E2,4.2878656E0,1.1196146E2,2.384566E0,2.705877E0,1.5819886E0,1.0979477E2,2.1666844E0,1.6453472E0,1.0605298E0,1.0777365E2,2.0211208E0,1.049777E2,2.795951E0],"tree_param":{"num_deleted":"0","num_feature":"2500","num_nodes":"17","size_leaf_vector":"1"}},{"base_weights":[1.0413971E-2,2.6808443E-2,-2.4243313E-1,-6.7172693E-3,4.7422805E-1,-3.0328676E-2,2.1055767E-1,6.173985E-1,-5.7870824E-2,-6.758064E-3,-2.3394305E-1,6.820127E-1,3.7961535E-2,3.486581E-2,-4.761623E-1,2.3530003E-1,7.511769E-2,-1.3082373E-2,1.4749083E-1,3.8636893E-2,-3.3083844E-1],"categories":[],"categories_nodes":[],"categories_segments":[],"categories_sizes":[],"default_left":[0,0,0,0,0,0,0,0,0,0,0,0,0,0,0,0,0,0,0,0,0],"id":22,"left_children":[1,3,-1,5,7,9,-1,11,-1,13,-1,15,-1,17,19,-1,-1,-1,-1,-1,-1],"loss_changes":[1.644307E0,1.7958779E0,0E0,1.897901E0,9.1615033E-1,1.9292845E0,0E0,1.3915753E-1,0E0,2.1107035E0,0E0,7.096934E-2,0E0,3.5836825E0,3.477219E0,0E0,0E0,0E0,0E0,0E0,0E0],"parents":[2147483647,0,0,1,1,3,3,4,4,5,5,7,7,9,9,11,11,13,13,14,14],"right_children":[2,4,-1,6,8,10,-1,12,-1,14,-1,16,-1,18,20,-1,-1,-1,-1,-1,-1],"split_conditions":[1E0,2.5E-1,-2.4243313E-1,2.5E-1,5E-1,5E-1,2.1055767E-1,2.5E-1,-5.7870824E-2,2.5E-1,-2.3394305E-1,1.1111111E-1,3.7961535E-2,3.3333334E-1,1.1111111E-1,2.3530003E-1,7.511769E-2,-1.3082373E-2,1.4749083E-1,3.8636893E-2,-3.3083844E-1],"split_indices":[2166,1303,0,1206,2046,119,0,2470,0,2470,0,749,0,1276,749,0,0,0,0,0,0],"split_type":[0,0,0,0,0,0,0,0,0,0,0,0,0,0,0,0,0,0,0,0,0],"sum_hessian":[1.19918816E2,1.18512344E2,1.4064717E0,1.1116742E2,7.3449273E0,1.0850885E2,2.6585698E0,6.108543E0,1.2363846E0,1.06178635E2,2.3302188E0,5.053856E0,1.0546865E0,9.838057E1,7.79806E0,3.4247866E0,1.6290696E0,8.4728615E1,1.3651955E1,4.371897E0,3.4261625E0],"tree_param":{"num_deleted":"0","num_feature":"2500","num_nodes":"21","size_leaf_vector":"1"}},{"base_weights":[8.532395E-3,-2.1314831E-2,4.930435E-1,-4.8043787E-2,6.5291244E-1,2.0479885E-1,-2.9463528E-3,-7.631439E-2,2.3724231E-1,2.2990717E-1,4.874036E-2,-5.652636E-2,-3.0714792E-1,-3.2519575E-2,-2.4956441E-1,-2.2576954E-3,-2.695406E-1],"categories":[],"categories_nodes":[],"categories_segments":[],"categories_sizes":[],"default_left":[0,0,0,0,0,0,0,0,0,0,0,0,0,0,0,0,0],"id":23,"left_children":[1,3,5,7,9,-1,-1,11,-1,-1,-1,13,-1,15,-1,-1,-1],"loss_changes":[1.7362145E0,2.07439E0,6.7094016E-1,2.66839E0,1.1982429E-1,0E0,0E0,1.9539663E0,0E0,0E0,0E0,1.9490774E0,0E0,2.2445307E0,0E0,0E0,0E0],"parents":[2147483647,0,0,1,1,2,2,3,3,4,4,7,7,11,11,13,13],"right_children":[2,4,6,8,10,-1,-1,12,-1,-1,-1,14,-1,16,-1,-1,-1],"split_conditions":[5E-1,5E-1,2.5E-1,5E-1,2.5E-1,2.0479885E-1,-2.9463528E-3,5E-1,2.3724231E-1,2.2990717E-1,4.874036E-2,5E-1,-3.0714792E-1,3.3333334E-1,-2.4956441E-1,-2.2576954E-3,-2.695406E-1],"split_indices":[2421,886,2470,1785,2345,0,0,353,0,0,0,1620,0,2387,0,0,0],"split_type":[0,0,0,0,0,0,0,0,0,0,0,0,0,0,0,0,0],"sum_hessian":[1.1833255E2,1.1236647E2,5.9660783E0,1.0897503E2,3.3914459E0,4.072776E0,1.8933024E0,1.0630153E2,2.6735027E0,2.2974467E0,1.0939991E0,1.05164894E2,1.1366278E0,1.0301719E2,2.1477087E0,1.01107605E2,1.9095826E0],"tree_param":{"num_deleted":"0","num_feature":"2500","num_nodes":"17","size_leaf_vector":"1"}},{"base_weights":[7.104554E-3,-1.1070557E-2,2.156921E-1,-2.897895E-2,2.1693979E-1,-1.2293559E-2,-2.7198622E-1,6.838411E-3,-2.2557169E-1,2.6116898E-2,-2.148696E-1,-1.0284333E-3,1.9550206E-1],"categories":[],"categories_nodes":[],"categories_segments":[],"categories_sizes":[],"default_left":[0,0,0,0,0,0,0,0,0,0,0,0,0],"id":24,"left_children":[1,3,-1,5,-1,7,-1,9,-1,11,-1,-1,-1],"loss_changes":[1.5417767E0,1.5538231E0,0E0,1.669488E0,0E0,1.6131768E0,0E0,1.576686E0,0E0,2.032083E0,0E0,0E0,0E0],"parents":[2147483647,0,0,1,1,3,3,5,5,7,7,9,9],"right_children":[2,4,-1,6,-1,8,-1,10,-1,12,-1,-1,-1],"split_conditions":[5E-1,5E-1,2.156921E-1,1E0,2.1693979E-1,5E-1,-2.7198622E-1,1E0,-2.2557169E-1,3.3333334E-1,-2.148696E-1,-1.0284333E-3,1.9550206E-1],"split_indices":[101,793,0,2166,0,1776,0,2346,0,1685,0,0,0],"split_type":[0,0,0,0,0,0,0,0,0,0,0,0,0],"sum_hessian":[1.1754861E2,1.1558207E2,1.9665391E0,1.13767624E2,1.8144447E0,1.1264016E2,1.1274643E0,1.1076567E2,1.8744851E0,1.0882799E2,1.9376886E0,1.0486952E2,3.9584627E0],"tree_param":{"num_deleted":"0","num_feature":"2500","num_nodes":"13","size_leaf_vector":"1"}},{"base_weights":[5.0615985E-3,-1.57131E-2,6.082349E-1,2.0819502E-3,-2.4155378E-1,2.1967584E-1,4.641588E-2,-1.7401787E-2,2.1200497E-1,-3.951739E-2,1.8037975E-1,-5.727731E-2,2.1756391E-1,-2.2489706E-2,2.063036E-1],"categories":[],"categories_nodes":[],"categories_segments":[],"categories_sizes":[],"default_left":[0,0,0,0,0,0,0,0,0,0,0,0,0,0,0],"id":25,"left_children":[1,3,5,7,-1,-1,-1,9,-1,11,-1,13,-1,-1,-1],"loss_changes":[1.479115E0,1.6080796E0,1.07742906E-1,1.5611622E0,0E0,0E0,0E0,1.5392448E0,0E0,1.5066978E0,0E0,1.4530244E0,0E0,0E0,0E0],"parents":[2147483647,0,0,1,1,2,2,3,3,7,7,9,9,11,11],"right_children":[2,4,6,8,-1,-1,-1,10,-1,12,-1,14,-1,-1,-1],"split_conditions":[1E0,1E0,2.5E-1,5E-1,-2.4155378E-1,2.1967584E-1,4.641588E-2,8.3333336E-2,2.1200497E-1,5E-1,1.8037975E-1,1E0,2.1756391E-1,-2.2489706E-2,2.063036E-1],"split_indices":[851,359,2458,744,0,0,0,71,0,1003,0,745,0,0,0],"split_type":[0,0,0,0,0,0,0,0,0,0,0,0,0,0,0],"sum_hessian":[1.1627619E2,1.1334623E2,2.9299603E0,1.1182304E2,1.5231968E0,1.8181539E0,1.1118063E0,1.0976315E2,2.0598838E0,1.0687867E2,2.8844829E0,1.0535698E2,1.5216846E0,1.037919E2,1.5650854E0],"tree_param":{"num_deleted":"0","num_feature":"2500","num_nodes":"15","size_leaf_vector":"1"}},{"base_weights":[1.1812276E-2,2.7902413E-2,-2.2259444E-1,4.6601698E-2,-1.8365625E-1,2.2168357E-2,6.4732987E-1,3.955012E-2,-2.3108584E-1,2.2615235E-1,5.1721383E-2,5.699747E-2,-1.9606487E-1,7.868467E-3,1.7601833E-1],"categories":[],"categories_nodes":[],"categories_segments":[],"categories_sizes":[],"default_left":[0,0,0,0,0,0,0,0,0,0,0,0,0,0,0],"id":26,"left_children":[1,3,-1,5,-1,7,9,11,-1,-1,-1,13,-1,-1,-1],"loss_changes":[1.4445394E0,1.4158195E0,0E0,1.6522285E0,0E0,1.5475886E0,9.2719674E-2,1.3520852E0,0E0,0E0,0E0,1.7283063E0,0E0,0E0,0E0],"parents":[2147483647,0,0,1,1,3,3,5,5,6,6,7,7,11,11],"right_children":[2,4,-1,6,-1,8,10,12,-1,-1,-1,14,-1,-1,-1],"split_conditions":[1E0,5E-1,-2.2259444E-1,3.3333334E-1,-1.8365625E-1,1E0,1.4285715E-1,1E0,-2.3108584E-1,2.2615235E-1,5.1721383E-2,2.5E-1,-1.9606487E-1,7.868467E-3,1.7601833E-1],"split_indices":[1451,1079,0,1261,0,2002,76,359,0,0,0,1938,0,0,0],"split_type":[0,0,0,0,0,0,0,0,0,0,0,0,0,0,0],"sum_hessian":[1.1639454E2,1.14904816E2,1.4897217E0,1.125442E2,2.3606186E0,1.0914198E2,3.402216E0,1.0772913E2,1.4128482E0,2.2992752E0,1.1029408E0,1.0597909E2,1.75004E0,1.0115315E2,4.8259425E0],"tree_param":{"num_deleted":"0","num_feature":"2500","num_nodes":"15","size_leaf_vector":"1"}},{"base_weights":[6.132838E-3,-2.3623127E-2,3.461178E-1,-4.3995257E-2,2.1958375E-1,5.1149E-1,-1.1017937E-1,-2.5610713E-2,-2.7556804E-1,6.416589E-1,-3.1095725E-2,-4.848548E-3,-6.233673E-1,2.1581781E-1,3.3186153E-2,1.2878187E-2,-2.1616478E-1,-2.3872186E-1,-3.044038E-2,9.731837E-3,-2.2492748E-1],"categories":[],"categories_nodes":[],"categories_segments":[],"categories_sizes":[],"default_left":[0,0,0,0,0,0,0,0,0,0,0,0,0,0,0,0,0,0,0,0,0],"id":27,"left_children":[1,3,5,7,-1,9,-1,11,-1,13,-1,15,17,-1,-1,19,-1,-1,-1,-1,-1],"loss_changes":[1.181372E0,1.6879923E0,1.2964168E0,1.6758082E0,0E0,7.1079564E-1,0E0,1.2944268E0,0E0,2.0029926E-1,0E0,1.3038801E0,2.3424733E-1,0E0,0E0,1.52445E0,0E0,0E0,0E0,0E0,0E0],"parents":[2147483647,0,0,1,1,2,2,3,3,5,5,7,7,9,9,11,11,12,12,15,15],"right_children":[2,4,6,8,-1,10,-1,12,-1,14,-1,16,18,-1,-1,20,-1,-1,-1,-1,-1],"split_conditions":[3.3333334E-1,2.5E-1,3.3333334E-1,1E0,2.1958375E-1,3.3333334E-1,-1.1017937E-1,3.3333334E-1,-2.7556804E-1,3.3333334E-1,-3.1095725E-2,5E-1,1.4285715E-1,2.1581781E-1,3.3186153E-2,5E-1,-2.1616478E-1,-2.3872186E-1,-3.044038E-2,9.731837E-3,-2.2492748E-1],"split_indices":[1030,1505,2185,2423,0,1007,0,1769,0,1276,0,1725,76,0,0,1796,0,0,0,0,0],"split_type":[0,0,0,0,0,0,0,0,0,0,0,0,0,0,0,0,0,0,0,0,0],"sum_hessian":[1.149676E2,1.06570885E2,8.396717E0,1.0468993E2,1.8809448E0,7.0462933E0,1.350424E0,1.0354261E2,1.147323E0,5.7800775E0,1.2662157E0,1.01041214E2,2.5014014E0,4.732623E0,1.0474545E0,9.955734E1,1.4838663E0,1.4859312E0,1.0154703E0,9.800113E1,1.5562193E0],"tree_param":{"num_deleted":"0","num_feature":"2500","num_nodes":"21","size_leaf_vector":"1"}},{"base_weights":[1.0792099E-4,-1.7372647E-2,1.749098E-1,-3.2003164E-2,2.112814E-1,-5.6308813E-2,3.9823735E-1,-7.660942E-2,1.6632146E-1,1.7862098E-1,-2.4402339E-2,-9.848202E-2,2.1076061E-1,-3.5732117E-2,1.735892E-1],"categories":[],"categories_nodes":[],"categories_segments":[],"categories_sizes":[],"default_left":[0,0,0,0,0,0,0,0,0,0,0,0,0,0,0],"id":28,"left_children":[1,3,-1,5,-1,7,9,11,-1,-1,-1,13,-1,-1,-1],"loss_changes":[1.1778218E0,1.207449E0,0E0,1.1827095E0,0E0,1.3553799E0,6.2114954E-1,1.8308042E0,0E0,0E0,0E0,1.4853536E0,0E0,0E0,0E0],"parents":[2147483647,0,0,1,1,3,3,5,5,6,6,7,7,11,11],"right_children":[2,4,-1,6,-1,8,10,12,-1,-1,-1,14,-1,-1,-1],"split_conditions":[5E-1,3.3333334E-1,1.749098E-1,5E-1,2.112814E-1,5E-1,2.5E-1,5E-1,1.6632146E-1,1.7862098E-1,-2.4402339E-2,1E0,2.1076061E-1,-3.5732117E-2,1.735892E-1],"split_indices":[1428,1976,0,2421,0,886,2470,1785,0,0,0,851,0,0,0],"split_type":[0,0,0,0,0,0,0,0,0,0,0,0,0,0,0],"sum_hessian":[1.13593666E2,1.11228386E2,2.3652852E0,1.0995483E2,1.2735579E0,1.04897934E2,5.0568933E0,1.02369644E2,2.5282903E0,3.4124444E0,1.6444492E0,1.0042408E2,1.9455603E0,9.8255295E1,2.168786E0],"tree_param":{"num_deleted":"0","num_feature":"2500","num_nodes":"15","size_leaf_vector":"1"}},{"base_weights":[1.0958665E-2,-3.7738862E-3,1.9638439E-1,1.4374961E-2,-1.730378E-1,3.0342847E-2,-2.2810626E-1,4.7043886E-2,-2.1408804E-1,6.262844E-2,-1.9891748E-1,2.4325857E-2,-1.6640732E-1],"categories":[],"categories_nodes":[],"categories_segments":[],"categories_sizes":[],"default_left":[0,0,0,0,0,0,0,0,0,0,0,0,0],"id":29,"left_children":[1,3,-1,5,-1,7,-1,9,-1,11,-1,-1,-1],"loss_changes":[1.0935392E0,1.1884265E0,0E0,1.3958632E0,0E0,1.3964907E0,0E0,1.2391661E0,0E0,1.2620115E0,0E0,0E0,0E0],"parents":[2147483647,0,0,1,1,3,3,5,5,7,7,9,9],"right_children":[2,4,-1,6,-1,8,-1,10,-1,12,-1,-1,-1],"split_conditions":[5E-1,5E-1,1.9638439E-1,5E-1,-1.730378E-1,5E-1,-2.2810626E-1,1E0,-2.1408804E-1,3.3333334E-1,-1.9891748E-1,2.4325857E-2,-1.6640732E-1],"split_indices":[101,119,0,2470,0,203,0,1451,0,1769,0,0,0],"split_type":[0,0,0,0,0,0,0,0,0,0,0,0,0],"sum_hessian":[1.14058945E2,1.1247858E2,1.58037E0,1.0997047E2,2.5081089E0,1.0869108E2,1.2793897E0,1.0722089E2,1.4701874E0,1.0581048E2,1.4104098E0,1.0358204E2,2.2284386E0],"tree_param":{"num_deleted":"0","num_feature":"2500","num_nodes":"13","size_leaf_vector":"1"}},{"base_weights":[1.8970832E-3,-1.551766E-2,1.6456845E-1,-3.3317976E-2,1.6824545E-1,-1.6466884E-2,-2.3859343E-1,9.039321E-3,-4.824363E-1,-1.2181343E-2,5.9422916E-1,-2.0384185E-1,1.0532258E-2,2.9929795E-3,-2.0648386E-1,2.5668755E-1,2.2972869E-3],"categories":[],"categories_nodes":[],"categories_segments":[],"categories_sizes":[],"default_left":[0,0,0,0,0,0,0,0,0,0,0,0,0,0,0,0,0],"id":30,"left_children":[1,3,-1,5,-1,7,-1,9,11,13,15,-1,-1,-1,-1,-1,-1],"loss_changes":[1.0916554E0,1.159843E0,0E0,1.384539E0,0E0,1.282161E0,0E0,1.285245E0,5.947106E-1,1.5093533E0,5.487189E-1,0E0,0E0,0E0,0E0,0E0,0E0],"parents":[2147483647,0,0,1,1,3,3,5,5,7,7,8,8,9,9,10,10],"right_children":[2,4,-1,6,-1,8,-1,10,12,14,16,-1,-1,-1,-1,-1,-1],"split_conditions":[5E-1,5E-1,1.6456845E-1,1E0,1.6824545E-1,5E-1,-2.3859343E-1,3.3333334E-1,1.4285715E-1,3.3333334E-1,1.6666667E-1,-2.0384185E-1,1.0532258E-2,2.9929795E-3,-2.0648386E-1,2.5668755E-1,2.2972869E-3],"split_indices":[974,468,0,2002,0,1318,0,924,76,1769,649,0,0,0,0,0,0],"split_type":[0,0,0,0,0,0,0,0,0,0,0,0,0,0,0,0,0],"sum_hessian":[1.1277529E2,1.10235214E2,2.5400798E0,1.0784653E2,2.3886847E0,1.06512665E2,1.3338625E0,1.01914665E2,4.5979977E0,9.92932E1,2.6214724E0,3.103551E0,1.4944469E0,9.7096275E1,2.1969178E0,1.4960804E0,1.1253921E0],"tree_param":{"num_deleted":"0","num_feature":"2500","num_nodes":"17","size_leaf_vector":"1"}},{"base_weights":[1.9056539E-3,-1.2023327E-2,2.0556144E-1,1.1524628E-2,-5.009306E-1,-1.1533223E-2,1.9638021E-1,-2.363021E-1,5.0805125E-2,9.148747E-3,-2.058081E-1,3.7730634E-2,-4.5283508E-1,1.8754816E-2,-1.9947623E-1,-2.257834E-1,1.4217557E-1],"categories":[],"categories_nodes":[],"categories_segments":[],"categories_sizes":[],"default_left":[0,0,0,0,0,0,0,0,0,0,0,0,0,0,0,0,0],"id":31,"left_children":[1,3,-1,5,7,9,-1,-1,-1,11,-1,13,15,-1,-1,-1,-1],"loss_changes":[1.0858847E0,1.2945896E0,0E0,1.6057085E0,1.1264013E0,1.4714589E0,0E0,0E0,0E0,1.3757381E0,0E0,1.745193E0,2.0435486E0,0E0,0E0,0E0,0E0],"parents":[2147483647,0,0,1,1,3,3,4,4,5,5,9,9,11,11,12,12],"right_children":[2,4,-1,6,8,10,-1,-1,-1,12,-1,14,16,-1,-1,-1,-1],"split_conditions":[1E0,2E-1,2.0556144E-1,2E-1,1E-1,3.3333334E-1,1.9638021E-1,-2.363021E-1,5.0805125E-2,3.3333334E-1,-2.058081E-1,3.3333334E-1,2.5E-1,1.8754816E-2,-1.9947623E-1,-2.257834E-1,1.4217557E-1],"split_indices":[1716,2284,0,518,1274,2387,0,0,0,161,0,1830,2345,0,0,0,0],"split_type":[0,0,0,0,0,0,0,0,0,0,0,0,0,0,0,0,0],"sum_hessian":[1.1222596E2,1.10946724E2,1.2792332E0,1.0678014E2,4.16658E0,1.0403208E2,2.7480628E0,2.7955277E0,1.3710526E0,1.0189414E2,2.1379392E0,9.6822296E1,5.071846E0,9.440333E1,2.418967E0,3.9742155E0,1.0976304E0],"tree_param":{"num_deleted":"0","num_feature":"2500","num_nodes":"17","size_leaf_vector":"1"}},{"base_weights":[3.90692E-4,-1.428152E-2,1.9166517E-1,-3.0564435E-2,1.7176107E-1,-4.82181E-2,2.0065139E-1,-6.4341195E-2,1.7479719E-1,-8.8616185E-2,4.0683615E-1,-2.1051172E-2,-2.735313E-1,1.6433606E-1,-1.464331E-3],"categories":[],"categories_nodes":[],"categories_segments":[],"categories_sizes":[],"default_left":[0,0,0,0,0,0,0,0,0,0,0,0,0,0,0],"id":32,"left_children":[1,3,-1,5,-1,7,-1,9,-1,11,13,-1,-1,-1,-1],"loss_changes":[1.0619358E0,1.0765517E0,0E0,1.3755199E0,0E0,1.1263387E0,0E0,1.2402306E0,0E0,1.468701E0,3.1239754E-1,0E0,0E0,0E0,0E0],"parents":[2147483647,0,0,1,1,3,3,5,5,7,7,9,9,10,10],"right_children":[2,4,-1,6,-1,8,-1,10,-1,12,14,-1,-1,-1,-1],"split_conditions":[5E-1,5E-1,1.9166517E-1,5E-1,1.7176107E-1,2.5E-1,2.0065139E-1,5E-1,1.7479719E-1,5E-1,2.5E-1,-2.1051172E-2,-2.735313E-1,1.6433606E-1,-1.464331E-3],"split_indices":[248,1282,0,744,0,1614,0,2421,0,353,715,0,0,0,0],"split_type":[0,0,0,0,0,0,0,0,0,0,0,0,0,0,0],"sum_hessian":[1.1138252E2,1.0983618E2,1.5463407E0,1.07793076E2,2.0431051E0,1.06047386E2,1.7456915E0,1.0428034E2,1.7670486E0,9.994321E1,4.3371344E0,9.881418E1,1.1290259E0,2.9848003E0,1.352334E0],"tree_param":{"num_deleted":"0","num_feature":"2500","num_nodes":"15","size_leaf_vector":"1"}},{"base_weights":[6.8825446E-3,1.978739E-2,-2.1290344E-1,-1.4452186E-2,3.342021E-1,-3.217514E-2,2.0021014E-1,4.812972E-1,-1.24993496E-1,-5.212493E-2,1.7269239E-1,6.234766E-1,-6.73702E-2,-8.711733E-2,2.847712E-1,7.320059E-1,-2.455728E-2,-7.429673E-3,-1.0827258E-1,1.666734E-1,-1.5186082E-1,2.5494424E-1,9.297088E-2],"categories":[],"categories_nodes":[],"categories_segments":[],"categories_sizes":[],"default_left":[0,0,0,0,0,0,0,0,0,0,0,0,0,0,0,0,0,0,0,0,0,0,0],"id":33,"left_children":[1,3,-1,5,7,9,-1,11,-1,13,-1,15,-1,17,19,21,-1,-1,-1,-1,-1,-1,-1],"loss_changes":[1.0546433E0,1.2053331E0,0E0,1.2482485E0,1.4146334E0,1.2414206E0,0E0,1.1090813E0,0E0,1.1759377E0,0E0,6.9542646E-1,0E0,1.5142345E0,2.299467E0,9.9421024E-2,0E0,0E0,0E0,0E0,0E0,0E0,0E0],"parents":[2147483647,0,0,1,1,3,3,4,4,5,5,7,7,9,9,11,11,13,13,14,14,15,15],"right_children":[2,4,-1,6,8,10,-1,12,-1,14,-1,16,-1,18,20,22,-1,-1,-1,-1,-1,-1,-1],"split_conditions":[1E0,3.3333334E-1,-2.1290344E-1,5E-1,2.5E-1,3.3333334E-1,2.0021014E-1,5E-1,-1.24993496E-1,2.5E-1,1.7269239E-1,1.6666667E-1,-6.73702E-2,2.5E-1,2E-1,3.3333334E-1,-2.455728E-2,-7.429673E-3,-1.0827258E-1,1.666734E-1,-1.5186082E-1,2.5494424E-1,9.297088E-2],"split_indices":[995,1053,0,1572,1938,924,0,1034,0,1390,0,1611,0,2458,1989,1670,0,0,0,0,0,0,0],"split_type":[0,0,0,0,0,0,0,0,0,0,0,0,0,0,0,0,0,0,0,0,0,0,0],"sum_hessian":[1.1153259E2,1.1051467E2,1.0179199E0,1.0052193E2,9.992743E0,9.890387E1,1.6180599E0,8.655983E0,1.3367602E0,9.664599E1,2.257879E0,7.3019085E0,1.3540745E0,8.8223854E1,8.422137E0,6.295422E0,1.0064864E0,7.2747246E1,1.5476611E1,6.495773E0,1.9263641E0,4.129578E0,2.1658437E0],"tree_param":{"num_deleted":"0","num_feature":"2500","num_nodes":"23","size_leaf_vector":"1"}},{"base_weights":[8.958528E-3,-6.83531E-3,1.6293113E-1,-2.0319123E-2,1.9581868E-1,-4.5602042E-2,3.5446426E-1,-6.2733844E-2,1.7249052E-1,1.6087987E-1,-8.533887E-3,-7.826708E-2,1.8470885E-1,-2.8627107E-2,1.5637198E-1],"categories":[],"categories_nodes":[],"categories_segments":[],"categories_sizes":[],"default_left":[0,0,0,0,0,0,0,0,0,0,0,0,0,0,0],"id":34,"left_children":[1,3,-1,5,-1,7,9,11,-1,-1,-1,13,-1,-1,-1],"loss_changes":[9.482455E-1,9.891757E-1,0E0,1.0443201E0,0E0,1.1261612E0,5.005459E-1,1.1091896E0,0E0,0E0,0E0,1.0712425E0,0E0,0E0,0E0],"parents":[2147483647,0,0,1,1,3,3,5,5,6,6,7,7,11,11],"right_children":[2,4,-1,6,-1,8,10,12,-1,-1,-1,14,-1,-1,-1],"split_conditions":[1E0,1E0,1.6293113E-1,2.5E-1,1.9581868E-1,2.5E-1,1.1111111E-1,5E-1,1.7249052E-1,1.6087987E-1,-8.533887E-3,1E0,1.8470885E-1,-2.8627107E-2,1.5637198E-1],"split_indices":[851,841,0,1303,0,1206,749,1572,0,0,0,195,0,0,0],"split_type":[0,0,0,0,0,0,0,0,0,0,0,0,0,0,0],"sum_hessian":[1.1096188E2,1.0873399E2,2.2278907E0,1.075054E2,1.2285953E0,1.0153422E2,5.9711833E0,9.9681274E1,1.8529449E0,3.7772732E0,2.1939101E0,9.83149E1,1.3663695E0,9.639706E1,1.9178468E0],"tree_param":{"num_deleted":"0","num_feature":"2500","num_nodes":"15","size_leaf_vector":"1"}},{"base_weights":[1.6439326E-2,3.1049743E-3,1.9010134E-1,1.7563049E-2,-2.203535E-1,3.3486217E-2,-1.878656E-1,1.9291755E-2,2.066957E-1,4.1240755E-2,-4.0920615E-1,2.4836888E-3,1.1712726E-1,-1.8067649E-1,5.143982E-2],"categories":[],"categories_nodes":[],"categories_segments":[],"categories_sizes":[],"default_left":[0,0,0,0,0,0,0,0,0,0,0,0,0,0,0],"id":35,"left_children":[1,3,-1,5,-1,7,-1,9,-1,11,13,-1,-1,-1,-1],"loss_changes":[9.211577E-1,1.1944617E0,0E0,1.1448989E0,0E0,9.91063E-1,0E0,1.020252E0,0E0,1.1752961E0,6.962622E-1,0E0,0E0,0E0,0E0],"parents":[2147483647,0,0,1,1,3,3,5,5,7,7,9,9,10,10],"right_children":[2,4,-1,6,-1,8,-1,10,-1,12,14,-1,-1,-1,-1],"split_conditions":[5E-1,1E0,1.9010134E-1,5E-1,-2.203535E-1,1E0,-1.878656E-1,5E-1,2.066957E-1,3.3333334E-1,1.1111111E-1,2.4836888E-3,1.1712726E-1,-1.8067649E-1,5.143982E-2],"split_indices":[793,2423,0,1776,0,745,0,1318,0,1053,749,0,0,0,0],"split_type":[0,0,0,0,0,0,0,0,0,0,0,0,0,0,0],"sum_hessian":[1.1116063E2,1.0979373E2,1.3668958E0,1.0864045E2,1.1532797E0,1.0694332E2,1.6971302E0,1.0568422E2,1.2591007E0,1.0139425E2,4.289975E0,9.358393E1,7.810313E0,3.1917021E0,1.0982733E0],"tree_param":{"num_deleted":"0","num_feature":"2500","num_nodes":"15","size_leaf_vector":"1"}},{"base_weights":[1.206197E-2,2.493378E-2,-1.9385251E-1,-2.4510878E-3,3.7208712E-1,-1.8974891E-2,1.9883648E-1,4.9936274E-1,-6.595556E-2,2.5692235E-3,-4.909161E-1,1.6184008E-1,4.8334565E-2,-1.668488E-2,2.0902728E-1,-2.1430749E-1,3.6386304E-2,3.6319548E-3,-1.381262E-1],"categories":[],"categories_nodes":[],"categories_segments":[],"categories_sizes":[],"default_left":[0,0,0,0,0,0,0,0,0,0,0,0,0,0,0,0,0,0,0],"id":36,"left_children":[1,3,-1,5,7,9,-1,11,-1,13,15,-1,-1,17,-1,-1,-1,-1,-1],"loss_changes":[9.564861E-1,1.04497E0,0E0,1.1424342E0,7.152426E-1,1.0309032E0,0E0,6.9532394E-3,0E0,1.3193675E0,6.921179E-1,0E0,0E0,1.234313E0,0E0,0E0,0E0,0E0,0E0],"parents":[2147483647,0,0,1,1,3,3,4,4,5,5,7,7,9,9,10,10,13,13],"right_children":[2,4,-1,6,8,10,-1,12,-1,14,16,-1,-1,18,-1,-1,-1,-1,-1],"split_conditions":[3.3333334E-1,3.3333334E-1,-1.9385251E-1,2.5E-1,2.5E-1,3.3333334E-1,1.9883648E-1,3.3333334E-1,-6.595556E-2,5E-1,2.5E-1,1.6184008E-1,4.8334565E-2,3.3333334E-1,2.0902728E-1,-2.1430749E-1,3.6386304E-2,3.6319548E-3,-1.381262E-1],"split_indices":[1134,1030,0,1505,2345,649,0,1276,0,1130,1484,0,0,2265,0,0,0,0,0],"split_type":[0,0,0,0,0,0,0,0,0,0,0,0,0,0,0,0,0,0,0],"sum_hessian":[1.09988754E2,1.08822845E2,1.1659079E0,1.0178645E2,7.0363894E0,1.002674E2,1.5190538E0,5.919915E0,1.1164742E0,9.6841156E1,3.4262424E0,4.76059E0,1.1593251E0,9.517727E1,1.6638851E0,2.3878582E0,1.0383842E0,9.0291504E1,4.8857665E0],"tree_param":{"num_deleted":"0","num_feature":"2500","num_nodes":"19","size_leaf_vector":"1"}},{"base_weights":[9.8666325E-3,2.2492807E-2,-1.9501051E-1,-2.8725306E-3,4.2111355E-1,1.0823558E-2,-1.873987E-1,1.663393E-1,-4.0117975E-2,-4.3465574E-3,1.7875007E-1,-2.4079945E-2,4.1855037E-1,-1.3104713E-2,1.7631255E-1,2.1906269E-1,-3.1675227E-2],"categories":[],"categories_nodes":[],"categories_segments":[],"categories_sizes":[],"default_left":[0,0,0,0,0,0,0,0,0,0,0,0,0,0,0,0,0],"id":37,"left_children":[1,3,-1,5,7,9,-1,-1,-1,11,-1,13,15,-1,-1,-1,-1],"loss_changes":[9.293627E-1,1.1002059E0,0E0,8.8546973E-1,5.557618E-1,9.0728563E-1,0E0,0E0,0E0,8.4758043E-1,0E0,1.1868968E0,8.1684107E-1,0E0,0E0,0E0,0E0],"parents":[2147483647,0,0,1,1,3,3,4,4,5,5,9,9,11,11,12,12],"right_children":[2,4,-1,6,8,10,-1,-1,-1,12,-1,14,16,-1,-1,-1,-1],"split_conditions":[1E0,2.5E-1,-1.9501051E-1,5E-1,5E-1,1E0,-1.873987E-1,1.663393E-1,-4.0117975E-2,5E-1,1.7875007E-1,5E-1,2.5E-1,-1.3104713E-2,1.7631255E-1,2.1906269E-1,-3.1675227E-2],"split_indices":[2166,1303,0,1776,2046,851,0,0,0,1419,0,468,2458,0,0,0,0],"split_type":[0,0,0,0,0,0,0,0,0,0,0,0,0,0,0,0,0],"sum_hessian":[1.0878611E2,1.0769152E2,1.0945922E0,1.0218218E2,5.5093403E0,1.0094135E2,1.24083E0,4.442342E0,1.0669984E0,9.9357445E1,1.5839053E0,9.5828896E1,3.528547E0,9.3753525E1,2.0753756E0,1.9662268E0,1.5623202E0],"tree_param":{"num_deleted":"0","num_feature":"2500","num_nodes":"17","size_leaf_vector":"1"}},{"base_weights":[1.046684E-2,-2.4139301E-3,1.911333E-1,1.09755965E-2,-1.828972E-1,-2.1965369E-3,1.8132856E-1,2.7340556E-2,-2.6629862E-1,5.1389158E-2,-2.1785678E-1,1.371414E-1,-9.738876E-1,2.1254858E-2,-2.0250434E-1,8.107826E-2,-8.129036E-2,-3.990505E-1,-2.4225807E-2],"categories":[],"categories_nodes":[],"categories_segments":[],"categories_sizes":[],"default_left":[0,0,0,0,0,0,0,0,0,0,0,0,0,0,0,0,0,0,0],"id":38,"left_children":[1,3,-1,5,-1,7,-1,9,11,13,-1,15,17,-1,-1,-1,-1,-1,-1],"loss_changes":[8.826507E-1,8.844727E-1,0E0,8.3471864E-1,0E0,8.286551E-1,0E0,1.7698803E0,3.183678E0,1.3707625E0,0E0,4.90537E-1,1.1664438E0,0E0,0E0,0E0,0E0,0E0,0E0],"parents":[2147483647,0,0,1,1,3,3,5,5,7,7,8,8,9,9,11,11,12,12],"right_children":[2,4,-1,6,-1,8,-1,10,12,14,-1,16,18,-1,-1,-1,-1,-1,-1],"split_conditions":[5E-1,5E-1,1.911333E-1,5E-1,-1.828972E-1,2.5E-1,1.8132856E-1,3.3333334E-1,2.5E-1,3.3333334E-1,-2.1785678E-1,2.5E-1,1.4285715E-1,2.1254858E-2,-2.0250434E-1,8.107826E-2,-8.129036E-2,-3.990505E-1,-2.4225807E-2],"split_indices":[2453,353,0,101,0,2212,0,1830,2458,1209,0,1484,76,0,0,0,0,0,0],"split_type":[0,0,0,0,0,0,0,0,0,0,0,0,0,0,0,0,0,0,0],"sum_hessian":[1.0816128E2,1.0695887E2,1.2024086E0,1.0561208E2,1.3467878E0,1.0429351E2,1.318574E0,9.460895E1,9.684557E0,9.258591E1,2.0230403E0,6.6813135E0,3.0032432E0,9.1049164E1,1.5367439E0,5.292687E0,1.3886267E0,1.7970548E0,1.2061883E0],"tree_param":{"num_deleted":"0","num_feature":"2500","num_nodes":"19","size_leaf_vector":"1"}},{"base_weights":[2.6028957E-3,-1.8041683E-2,3.9791065E-1,-1.8538858E-3,-2.1604268E-1,1.766205E-1,-1.5167782E-2,-1.864124E-2,1.702588E-1,-3.4881264E-2,1.8950732E-1,-6.374641E-2,2.8083718E-1,-2.7298661E-2,1.9001527E-1,1.4193052E-1,-4.8380073E-2],"categories":[],"categories_nodes":[],"categories_segments":[],"categories_sizes":[],"default_left":[0,0,0,0,0,0,0,0,0,0,0,0,0,0,0,0,0],"id":39,"left_children":[1,3,5,7,-1,-1,-1,9,-1,11,-1,13,15,-1,-1,-1,-1],"loss_changes":[8.882433E-1,1.1756625E0,4.920376E-1,9.87718E-1,0E0,0E0,0E0,1.0810093E0,0E0,9.180474E-1,0E0,1.7922562E0,7.953222E-1,0E0,0E0,0E0,0E0],"parents":[2147483647,0,0,1,1,2,2,3,3,7,7,9,9,11,11,12,12],"right_children":[2,4,6,8,-1,-1,-1,10,-1,12,-1,14,16,-1,-1,-1,-1],"split_conditions":[5E-1,5E-1,2.5E-1,5E-1,-2.1604268E-1,1.766205E-1,-1.5167782E-2,5E-1,1.702588E-1,3.3333334E-1,1.8950732E-1,5E-1,2.5E-1,-2.7298661E-2,1.9001527E-1,1.4193052E-1,-4.8380073E-2],"split_indices":[2421,1725,104,886,0,0,0,1785,0,1053,0,1419,1117,0,0,0,0],"split_type":[0,0,0,0,0,0,0,0,0,0,0,0,0,0,0,0,0],"sum_hessian":[1.06960846E2,1.0255915E2,4.4016957E0,1.0122786E2,1.331293E0,2.8684177E0,1.5332779E0,9.926835E1,1.9595083E0,9.777313E1,1.4952154E0,9.0314095E1,7.4590425E0,8.7753494E1,2.560598E0,5.1494913E0,2.3095515E0],"tree_param":{"num_deleted":"0","num_feature":"2500","num_nodes":"17","size_leaf_vector":"1"}},{"base_weights":[8.620187E-3,-4.499617E-3,1.8071137E-1,1.0637163E-2,-2.0914504E-1,2.5253547E-2,-2.072395E-1,3.8207468E-2,-1.6167063E-1,1.8768026E-2,1.8947305E-1,7.8113494E-4,1.9671287E-1],"categories":[],"categories_nodes":[],"categories_segments":[],"categories_sizes":[],"default_left":[0,0,0,0,0,0,0,0,0,0,0,0,0],"id":40,"left_children":[1,3,-1,5,-1,7,-1,9,-1,11,-1,-1,-1],"loss_changes":[8.42853E-1,1.1241331E0,0E0,1.0961912E0,0E0,7.8088313E-1,0E0,1.1720052E0,0E0,1.0320696E0,0E0,0E0,0E0],"parents":[2147483647,0,0,1,1,3,3,5,5,7,7,9,9],"right_children":[2,4,-1,6,-1,8,-1,10,-1,12,-1,-1,-1],"split_conditions":[5E-1,5E-1,1.8071137E-1,5E-1,-2.0914504E-1,1E0,-2.072395E-1,5E-1,-1.6167063E-1,5E-1,1.8947305E-1,7.8113494E-4,1.9671287E-1],"split_indices":[1499,1703,0,1719,0,509,0,524,0,1130,0,0,0],"split_type":[0,0,0,0,0,0,0,0,0,0,0,0,0],"sum_hessian":[1.0685028E2,1.0551128E2,1.3390052E0,1.0421839E2,1.2928851E0,1.03035355E2,1.1830345E0,1.0163395E2,1.4014039E0,9.940884E1,2.2251148E0,9.792772E1,1.481113E0],"tree_param":{"num_deleted":"0","num_feature":"2500","num_nodes":"13","size_leaf_vector":"1"}},{"base_weights":[6.578067E-3,-5.5312193E-3,1.9135454E-1,1.375089E-2,-4.702956E-1,-2.6630252E-3,1.9566862E-1,-3.447149E-2,-2.1659766E-1,-1.9192012E-2,1.8224524E-1,-3.7849426E-2,5.104657E-1,-1.6513534E-2,1.6231644E-1,2.0365952E-1,1.4492136E-2],"categories":[],"categories_nodes":[],"categories_segments":[],"categories_sizes":[],"default_left":[0,0,0,0,0,0,0,0,0,0,0,0,0,0,0,0,0],"id":41,"left_children":[1,3,-1,5,7,9,-1,-1,-1,11,-1,13,15,-1,-1,-1,-1],"loss_changes":[8.2324827E-1,9.582549E-1,0E0,1.0806209E0,2.9802614E-1,1.0339203E0,0E0,0E0,0E0,1.0041579E0,0E0,9.9736613E-1,2.3649698E-1,0E0,0E0,0E0,0E0],"parents":[2147483647,0,0,1,1,3,3,4,4,5,5,9,9,11,11,12,12],"right_children":[2,4,-1,6,8,10,-1,-1,-1,12,-1,14,16,-1,-1,-1,-1],"split_conditions":[3.3333334E-1,5E-1,1.9135454E-1,1E0,3.3333334E-1,2.5E-1,1.9566862E-1,-3.447149E-2,-2.1659766E-1,8.3333336E-2,1.8224524E-1,5E-1,2E-1,-1.6513534E-2,1.6231644E-1,2.0365952E-1,1.4492136E-2],"split_indices":[1976,200,0,195,2185,1614,0,0,0,71,0,1284,1854,0,0,0,0],"split_type":[0,0,0,0,0,0,0,0,0,0,0,0,0,0,0,0,0],"sum_hessian":[1.0623378E2,1.052069E2,1.0268837E0,1.01947716E2,3.2591858E0,1.0036341E2,1.5843021E0,1.9551187E0,1.3040673E0,9.865926E1,1.7041506E0,9.619914E1,2.4601152E0,9.43029E1,1.8962437E0,1.4594328E0,1.0006824E0],"tree_param":{"num_deleted":"0","num_feature":"2500","num_nodes":"17","size_leaf_vector":"1"}},{"base_weights":[1.1787216E-2,4.7333157E-5,1.7865394E-1,1.9701209E-2,-4.3114808E-1,2.1987811E-3,1.6656138E-1,-1.925085E-1,4.369166E-2,1.7262956E-2,-2.0824426E-1,3.6143977E-2,-1.6688532E-1,1.6888494E-2,-1.7548797E-1],"categories":[],"categories_nodes":[],"categories_segments":[],"categories_sizes":[],"default_left":[0,0,0,0,0,0,0,0,0,0,0,0,0,0,0],"id":42,"left_children":[1,3,-1,5,7,9,-1,-1,-1,11,-1,13,-1,-1,-1],"loss_changes":[7.3437643E-1,9.07271E-1,0E0,9.5841885E-1,6.6021186E-1,1.0625565E0,0E0,0E0,0E0,1.0922594E0,0E0,1.2443378E0,0E0,0E0,0E0],"parents":[2147483647,0,0,1,1,3,3,4,4,5,5,9,9,11,11],"right_children":[2,4,-1,6,8,10,-1,-1,-1,12,-1,14,-1,-1,-1],"split_conditions":[1E0,2E-1,1.7865394E-1,2E-1,1E-1,5E-1,1.6656138E-1,-1.925085E-1,4.369166E-2,3.3333334E-1,-2.0824426E-1,5E-1,-1.6688532E-1,1.6888494E-2,-1.7548797E-1],"split_indices":[1716,2284,0,518,1274,98,0,0,0,2387,0,119,0,0,0],"split_type":[0,0,0,0,0,0,0,0,0,0,0,0,0,0,0],"sum_hessian":[1.0616738E2,1.0505461E2,1.112775E0,1.0138767E2,3.6669374E0,9.9151115E1,2.236556E0,2.6038935E0,1.0630437E0,9.800614E1,1.1449738E0,9.578975E1,2.2163906E0,9.366041E1,2.1293416E0],"tree_param":{"num_deleted":"0","num_feature":"2500","num_nodes":"15","size_leaf_vector":"1"}},{"base_weights":[5.847224E-3,-8.080049E-3,1.5191832E-1,-2.0622518E-2,1.7255782E-1,-3.2718338E-2,1.7704487E-1,-4.4897594E-2,1.7655201E-1,-5.7144113E-2,1.6924198E-1,-8.667569E-3,-1.0606695E-1],"categories":[],"categories_nodes":[],"categories_segments":[],"categories_sizes":[],"default_left":[0,0,0,0,0,0,0,0,0,0,0,0,0],"id":43,"left_children":[1,3,-1,5,-1,7,-1,9,-1,11,-1,-1,-1],"loss_changes":[7.4534804E-1,7.758839E-1,0E0,7.817516E-1,0E0,7.992685E-1,0E0,7.86386E-1,0E0,8.274368E-1,0E0,0E0,0E0],"parents":[2147483647,0,0,1,1,3,3,5,5,7,7,9,9],"right_children":[2,4,-1,6,-1,8,-1,10,-1,12,-1,-1,-1],"split_conditions":[5E-1,5E-1,1.5191832E-1,5E-1,1.7255782E-1,1E0,1.7704487E-1,5E-1,1.7655201E-1,3.3333334E-1,1.6924198E-1,-8.667569E-3,-1.0606695E-1],"split_indices":[1428,248,0,2453,0,841,0,793,0,2185,0,0,0],"split_type":[0,0,0,0,0,0,0,0,0,0,0,0,0],"sum_hessian":[1.05330376E2,1.0343622E2,1.8941618E0,1.02203125E2,1.2330925E0,1.0114644E2,1.056688E0,1.0011146E2,1.0349799E0,9.9026405E1,1.0850488E0,9.1411125E1,7.615279E0],"tree_param":{"num_deleted":"0","num_feature":"2500","num_nodes":"13","size_leaf_vector":"1"}},{"base_weights":[1.1729109E-2,2.384903E-2,-1.884455E-1,9.751337E-3,1.859755E-1,2.2922155E-2,-1.602202E-1,8.896775E-3,1.8580216E-1,2.253812E-2,-1.7667228E-1,1.0871116E-2,-1.5688586E-1],"categories":[],"categories_nodes":[],"categories_segments":[],"categories_sizes":[],"default_left":[0,0,0,0,0,0,0,0,0,0,0,0,0],"id":44,"left_children":[1,3,-1,5,-1,7,-1,9,-1,11,-1,-1,-1],"loss_changes":[8.386068E-1,8.7789553E-1,0E0,7.5554496E-1,0E0,8.500732E-1,0E0,8.364729E-1,0E0,7.636517E-1,0E0,0E0,0E0],"parents":[2147483647,0,0,1,1,3,3,5,5,7,7,9,9],"right_children":[2,4,-1,6,-1,8,-1,10,-1,12,-1,-1,-1],"split_conditions":[1E0,5E-1,-1.884455E-1,1E0,1.859755E-1,5E-1,-1.602202E-1,5E-1,1.8580216E-1,1E0,-1.7667228E-1,1.0871116E-2,-1.5688586E-1],"split_indices":[995,1428,0,359,0,1282,0,1703,0,2002,0,0,0],"split_type":[0,0,0,0,0,0,0,0,0,0,0,0,0],"sum_hessian":[1.0520166E2,1.0419092E2,1.0107412E0,1.027765E2,1.4144171E0,1.012814E2,1.4950984E0,9.9945984E1,1.3354139E0,9.865702E1,1.288964E0,9.715084E1,1.5061824E0],"tree_param":{"num_deleted":"0","num_feature":"2500","num_nodes":"13","size_leaf_vector":"1"}},{"base_weights":[5.9195673E-3,-5.99036E-3,1.7519705E-1,-1.8185789E-2,1.6800112E-1,-3.0169418E-2,1.6722524E-1,-6.3731166E-4,-3.3660337E-1,1.8238505E-2,-1.792319E-1,-4.840683E-1,1.01386145E-1,1.1285942E-2,-1.7041017E-1,-1.616712E-2,-1.9845234E-1],"categories":[],"categories_nodes":[],"categories_segments":[],"categories_sizes":[],"default_left":[0,0,0,0,0,0,0,0,0,0,0,0,0,0,0,0,0],"id":45,"left_children":[1,3,-1,5,-1,7,-1,9,11,13,-1,15,-1,-1,-1,-1,-1],"loss_changes":[7.2812897E-1,7.2885084E-1,0E0,7.265246E-1,0E0,9.2048705E-1,0E0,1.0675416E0,1.0530027E0,1.0655186E0,0E0,5.557842E-1,0E0,0E0,0E0,0E0,0E0],"parents":[2147483647,0,0,1,1,3,3,5,5,7,7,8,8,9,9,11,11],"right_children":[2,4,-1,6,-1,8,-1,10,12,14,-1,16,-1,-1,-1,-1,-1],"split_conditions":[1E0,5E-1,1.7519705E-1,5E-1,1.6800112E-1,2.5E-1,1.6722524E-1,1E0,2.5E-1,5E-1,-1.792319E-1,1.1111111E-1,1.01386145E-1,1.1285942E-2,-1.7041017E-1,-1.616712E-2,-1.9845234E-1],"split_indices":[745,1499,0,1003,0,715,0,1219,1390,4,0,749,0,0,0,0,0],"split_type":[0,0,0,0,0,0,0,0,0,0,0,0,0,0,0,0,0],"sum_hessian":[1.0425112E2,1.0311627E2,1.1348563E0,1.0188875E2,1.2275193E0,1.0073902E2,1.1497247E0,9.279785E1,7.941172E0,9.089252E1,1.9053324E0,6.7483144E0,1.1928579E0,8.8889786E1,2.0027332E0,2.351393E0,4.396921E0],"tree_param":{"num_deleted":"0","num_feature":"2500","num_nodes":"17","size_leaf_vector":"1"}},{"base_weights":[5.5834292E-3,-5.9622824E-3,1.6903813E-1,6.6199414E-3,-1.5831766E-1,-1.1504379E-2,1.2561311E-1,4.5340625E-3,-1.7331257E-1,2.6894817E-2,-5.2689046E-1,2.686175E-3,1.9499223E-1,-7.153884E-2,-2.0469736E-1],"categories":[],"categories_nodes":[],"categories_segments":[],"categories_sizes":[],"default_left":[0,0,0,0,0,0,0,0,0,0,0,0,0,0,0],"id":46,"left_children":[1,3,-1,5,-1,7,-1,9,-1,11,13,-1,-1,-1,-1],"loss_changes":[6.783477E-1,6.8400794E-1,0E0,7.681762E-1,0E0,9.0048915E-1,0E0,1.1685114E0,0E0,1.0468781E0,1.5314817E-2,0E0,0E0,0E0,0E0],"parents":[2147483647,0,0,1,1,3,3,5,5,7,7,9,9,10,10],"right_children":[2,4,-1,6,-1,8,-1,10,-1,12,14,-1,-1,-1,-1],"split_conditions":[5E-1,5E-1,1.6903813E-1,3.3333334E-1,-1.5831766E-1,5E-1,1.2561311E-1,5E-1,-1.7331257E-1,5E-1,3.3333334E-1,2.686175E-3,1.9499223E-1,-7.153884E-2,-2.0469736E-1],"split_indices":[101,1776,0,1685,0,920,0,2458,0,974,1007,0,0,0,0],"split_type":[0,0,0,0,0,0,0,0,0,0,0,0,0,0,0],"sum_hessian":[1.0379416E2,1.0265886E2,1.135295E0,1.0120562E2,1.4532424E0,9.78731E1,3.3325152E0,9.614176E1,1.7313435E0,9.31708E1,2.9709573E0,9.154911E1,1.6216882E0,1.9278182E0,1.0431392E0],"tree_param":{"num_deleted":"0","num_feature":"2500","num_nodes":"15","size_leaf_vector":"1"}},{"base_weights":[3.380021E-3,-7.6612006E-3,1.7000157E-1,-2.0215508E-2,1.4609997E-1,-3.3201642E-2,1.7470837E-1,-4.5898493E-2,1.5581495E-1,-6.5246284E-2,3.639128E-1,-1.4902794E-2,-2.1899813E-1,1.4994836E-1,8.7414304E-4],"categories":[],"categories_nodes":[],"categories_segments":[],"categories_sizes":[],"default_left":[0,0,0,0,0,0,0,0,0,0,0,0,0,0,0],"id":47,"left_children":[1,3,-1,5,-1,7,-1,9,-1,11,13,-1,-1,-1,-1],"loss_changes":[6.513123E-1,6.495565E-1,0E0,8.12973E-1,0E0,7.270467E-1,0E0,8.078806E-1,0E0,9.4996655E-1,2.2476077E-1,0E0,0E0,0E0,0E0],"parents":[2147483647,0,0,1,1,3,3,5,5,7,7,9,9,10,10],"right_children":[2,4,-1,6,-1,8,-1,10,-1,12,14,-1,-1,-1,-1],"split_conditions":[1E0,5E-1,1.7000157E-1,5E-1,1.4609997E-1,2.5E-1,1.7470837E-1,5E-1,1.5581495E-1,5E-1,2.5E-1,-1.4902794E-2,-2.1899813E-1,1.4994836E-1,8.7414304E-4],"split_indices":[743,744,0,1282,0,1614,0,2421,0,353,104,0,0,0,0],"split_type":[0,0,0,0,0,0,0,0,0,0,0,0,0,0,0],"sum_hessian":[1.0302416E2,1.0201102E2,1.0131439E0,1.0042149E2,1.589526E0,9.922793E1,1.1935612E0,9.789551E1,1.3324263E0,9.4284966E1,3.6105406E0,9.3177216E1,1.1077498E0,2.3436098E0,1.2669307E0],"tree_param":{"num_deleted":"0","num_feature":"2500","num_nodes":"15","size_leaf_vector":"1"}},{"base_weights":[8.498391E-3,1.9412562E-2,-1.6559961E-1,3.2180134E-2,-1.9241294E-1,1.0538434E-2,3.9580145E-1,-2.5288165E-3,1.6436325E-1,4.4021508E-1,3.2787815E-2,-1.7731285E-2,1.4172167E-1,1.6357093E-1,2.8081724E-2,-8.549221E-4,-1.8353465E-1],"categories":[],"categories_nodes":[],"categories_segments":[],"categories_sizes":[],"default_left":[0,0,0,0,0,0,0,0,0,0,0,0,0,0,0,0,0],"id":48,"left_children":[1,3,-1,5,-1,7,9,11,-1,13,-1,15,-1,-1,-1,-1,-1],"loss_changes":[6.476492E-1,8.904294E-1,0E0,7.9924816E-1,0E0,6.8519E-1,2.4517238E-2,7.020183E-1,0E0,1.1682314E-1,0E0,8.2973105E-1,0E0,0E0,0E0,0E0,0E0],"parents":[2147483647,0,0,1,1,3,3,5,5,6,6,7,7,9,9,11,11],"right_children":[2,4,-1,6,-1,8,10,12,-1,14,-1,16,-1,-1,-1,-1,-1],"split_conditions":[1E0,1E0,-1.6559961E-1,2.5E-1,-1.9241294E-1,1E0,2.5E-1,1E-1,1.6436325E-1,1.1111111E-1,3.2787815E-2,5E-1,1.4172167E-1,1.6357093E-1,2.8081724E-2,-8.549221E-4,-1.8353465E-1],"split_indices":[2166,2423,0,1303,0,851,2470,1274,0,749,0,203,0,0,0,0,0],"split_type":[0,0,0,0,0,0,0,0,0,0,0,0,0,0,0,0,0],"sum_hessian":[1.03118996E2,1.0209631E2,1.0226852E0,1.010943E2,1.0020143E0,9.638663E1,4.7076745E0,9.506996E1,1.3166598E0,3.6113713E0,1.0963031E0,9.305401E1,2.0159578E0,2.33179E0,1.2795812E0,9.1760124E1,1.2938824E0],"tree_param":{"num_deleted":"0","num_feature":"2500","num_nodes":"17","size_leaf_vector":"1"}},{"base_weights":[6.3598235E-3,-7.2416263E-3,1.3224864E-1,-3.1598773E-2,2.8097054E-1,-2.3320091E-3,-4.782722E-1,4.620968E-1,-1.423302E-1,1.4544641E-2,-2.0019053E-1,-1.7800297E-1,3.5397091E-3,2.0963685E-1,-3.440522E-2,3.1154482E-2,-1.9905661E-1,1.43377455E-2,-1.4292279E-1],"categories":[],"categories_nodes":[],"categories_segments":[],"categories_sizes":[],"default_left":[0,0,0,0,0,0,0,0,0,0,0,0,0,0,0,0,0,0,0],"id":49,"left_children":[1,3,-1,5,7,9,11,13,-1,15,-1,-1,-1,-1,-1,17,-1,-1,-1],"loss_changes":[6.1536723E-1,7.2093695E-1,0E0,1.2333018E0,1.3145454E0,1.0155247E0,3.3417404E-1,1.030814E0,0E0,1.0161242E0,0E0,0E0,0E0,0E0,0E0,7.5939304E-1,0E0,0E0,0E0],"parents":[2147483647,0,0,1,1,3,3,4,4,5,5,6,6,7,7,9,9,15,15],"right_children":[2,4,-1,6,8,10,12,14,-1,16,-1,-1,-1,-1,-1,18,-1,-1,-1],"split_conditions":[5E-1,2.5E-1,1.3224864E-1,2.5E-1,3.3333334E-1,5E-1,3.3333334E-1,2E-1,-1.423302E-1,1E0,-2.0019053E-1,-1.7800297E-1,3.5397091E-3,2.0963685E-1,-3.440522E-2,3.3333334E-1,-1.9905661E-1,1.43377455E-2,-1.4292279E-1],"split_indices":[1284,2003,0,503,1386,1725,1276,1989,0,2346,0,0,0,0,0,1209,0,0,0],"split_type":[0,0,0,0,0,0,0,0,0,0,0,0,0,0,0,0,0,0,0],"sum_hessian":[1.02593285E2,1.0043248E2,2.1607988E0,9.342721E1,7.0052786E0,8.862554E1,4.801667E0,5.963634E0,1.0416446E0,8.738585E1,1.2396886E0,3.7179472E0,1.0837197E0,4.078438E0,1.885196E0,8.622768E1,1.1581692E0,8.436793E1,1.8597516E0],"tree_param":{"num_deleted":"0","num_feature":"2500","num_nodes":"19","size_leaf_vector":"1"}},{"base_weights":[1.1857294E-4,-1.0701466E-2,1.64156E-1,-2.1913495E-2,1.5694584E-1,-3.6983117E-2,3.8136876E-1,-2.3426784E-2,-1.7198816E-1,1.9069363E-1,-1.626927E-2,-4.8115477E-2,2.896978E-1,-2.0076266E-2,1.6611812E-1,1.5422268E-1,-1.3990702E-1],"categories":[],"categories_nodes":[],"categories_segments":[],"categories_sizes":[],"default_left":[0,0,0,0,0,0,0,0,0,0,0,0,0,0,0,0,0],"id":50,"left_children":[1,3,-1,5,-1,7,9,11,-1,-1,-1,13,15,-1,-1,-1,-1],"loss_changes":[6.126471E-1,6.190215E-1,0E0,6.2411577E-1,0E0,6.966789E-1,4.4474363E-1,7.584442E-1,0E0,0E0,0E0,1.057081E0,1.457912E0,0E0,0E0,0E0,0E0],"parents":[2147483647,0,0,1,1,3,3,5,5,6,6,7,7,11,11,12,12],"right_children":[2,4,-1,6,-1,8,10,12,-1,-1,-1,14,16,-1,-1,-1,-1],"split_conditions":[1E0,5E-1,1.64156E-1,3.3333334E-1,1.5694584E-1,1E0,3.3333334E-1,2.5E-1,-1.7198816E-1,1.9069363E-1,-1.626927E-2,5E-1,3.3333334E-1,-2.0076266E-2,1.6611812E-1,1.5422268E-1,-1.3990702E-1],"split_indices":[745,1499,0,1261,0,2002,1276,2003,0,0,0,1085,1386,0,0,0,0],"split_type":[0,0,0,0,0,0,0,0,0,0,0,0,0,0,0,0,0],"sum_hessian":[1.015107E2,1.0050336E2,1.00734E0,9.937522E1,1.1281303E0,9.6671165E1,2.7040586E0,9.53058E1,1.3653647E0,1.4174155E0,1.2866433E0,8.912497E1,6.180831E0,8.728639E1,1.8385786E0,5.013119E0,1.1677117E0],"tree_param":{"num_deleted":"0","num_feature":"2500","num_nodes":"17","size_leaf_vector":"1"}},{"base_weights":[5.7618776E-3,1.6657123E-2,-1.6465622E-1,4.7658873E-3,1.6890456E-1,1.7150568E-2,-1.6927509E-1,3.5785828E-2,-3.4338182E-1,1.86593E-2,1.9646923E-1,-9.031081E-3,-1.9420932E-1,5.702583E-4,1.59457E-1],"categories":[],"categories_nodes":[],"categories_segments":[],"categories_sizes":[],"default_left":[0,0,0,0,0,0,0,0,0,0,0,0,0,0,0],"id":51,"left_children":[1,3,-1,5,-1,7,-1,9,11,13,-1,-1,-1,-1,-1],"loss_changes":[6.2901115E-1,6.57243E-1,0E0,7.173514E-1,0E0,6.7912596E-1,0E0,9.9805444E-1,4.540403E-1,8.0470395E-1,0E0,0E0,0E0,0E0,0E0],"parents":[2147483647,0,0,1,1,3,3,5,5,7,7,8,8,9,9],"right_children":[2,4,-1,6,-1,8,-1,10,12,14,-1,-1,-1,-1,-1],"split_conditions":[1E0,5E-1,-1.6465622E-1,5E-1,1.6890456E-1,3.3333334E-1,-1.6927509E-1,1E0,3.3333334E-1,2.5E-1,1.9646923E-1,-9.031081E-3,-1.9420932E-1,5.702583E-4,1.59457E-1],"split_indices":[995,1428,0,2470,0,1806,0,2410,161,1619,0,0,0,0,0],"split_type":[0,0,0,0,0,0,0,0,0,0,0,0,0,0,0],"sum_hessian":[1.01581825E2,1.00576004E2,1.0058157E0,9.9420876E1,1.1551275E0,9.8252266E1,1.1686089E0,9.427986E1,3.9724116E0,9.27444E1,1.5354561E0,2.4975345E0,1.4748771E0,9.078171E1,1.9626935E0],"tree_param":{"num_deleted":"0","num_feature":"2500","num_nodes":"15","size_leaf_vector":"1"}},{"base_weights":[4.4840244E-3,-6.5869563E-3,1.503758E-1,-1.8103277E-2,1.3892682E-1,-3.4255793E-3,-1.291535E-1,1.334252E-2,-1.6205382E-1,-3.207631E-2,2.755123E-1,-1.68806E-2,1.8762062E-1,1.256556E-1,-9.168005E-2],"categories":[],"categories_nodes":[],"categories_segments":[],"categories_sizes":[],"default_left":[0,0,0,0,0,0,0,0,0,0,0,0,0,0,0],"id":52,"left_children":[1,3,-1,5,-1,7,-1,9,-1,11,13,-1,-1,-1,-1],"loss_changes":[5.6479746E-1,5.539118E-1,0E0,6.00246E-1,0E0,8.802141E-1,0E0,1.1404567E0,0E0,1.3378464E0,1.3055787E0,0E0,0E0,0E0,0E0],"parents":[2147483647,0,0,1,1,3,3,5,5,7,7,9,9,10,10],"right_children":[2,4,-1,6,-1,8,-1,10,-1,12,14,-1,-1,-1,-1],"split_conditions":[2.5E-1,5E-1,1.503758E-1,5E-1,1.3892682E-1,3.3333334E-1,-1.291535E-1,3.3333334E-1,-1.6205382E-1,3.3333334E-1,2.5E-1,-1.68806E-2,1.8762062E-1,1.256556E-1,-9.168005E-2],"split_indices":[1505,11,0,119,0,1769,0,1276,0,540,2470,0,0,0,0],"split_type":[0,0,0,0,0,0,0,0,0,0,0,0,0,0,0],"sum_hessian":[1.01095406E2,9.9856735E1,1.2386659E0,9.840533E1,1.4514128E0,9.599708E1,2.4082491E0,9.403459E1,1.9624832E0,8.089741E1,1.3137182E1,7.890834E1,1.9890674E0,1.0761844E1,2.375339E0],"tree_param":{"num_deleted":"0","num_feature":"2500","num_nodes":"15","size_leaf_vector":"1"}},{"base_weights":[6.2552444E-3,1.687903E-2,-1.5883681E-1,2.9332478E-2,-1.555417E-1,9.857917E-3,1.1623631E-1,-3.9556404E-3,1.6247092E-1,9.432607E-3,-1.6233853E-1,7.0317094E-3,-1.5538561E-1],"categories":[],"categories_nodes":[],"categories_segments":[],"categories_sizes":[],"default_left":[0,0,0,0,0,0,0,0,0,0,0,0,0],"id":53,"left_children":[1,3,-1,5,-1,7,-1,9,-1,11,-1,-1,-1],"loss_changes":[5.878936E-1,6.866917E-1,0E0,6.892464E-1,0E0,7.019255E-1,0E0,6.800968E-1,0E0,6.95833E-1,0E0,0E0,0E0],"parents":[2147483647,0,0,1,1,3,3,5,5,7,7,9,9],"right_children":[2,4,-1,6,-1,8,-1,10,-1,12,-1,-1,-1],"split_conditions":[1E0,5E-1,-1.5883681E-1,2.5E-1,-1.555417E-1,2.5E-1,1.1623631E-1,5E-1,1.6247092E-1,5E-1,-1.6233853E-1,7.0317094E-3,-1.5538561E-1],"split_indices":[2166,1776,0,1303,0,1206,0,203,0,1796,0,0,0],"split_type":[0,0,0,0,0,0,0,0,0,0,0,0,0],"sum_hessian":[1.00727E2,9.9717964E1,1.0090324E0,9.837476E1,1.343204E0,9.4275604E1,4.099153E0,9.285583E1,1.4197791E0,9.155636E1,1.2994686E0,9.011852E1,1.4378362E0],"tree_param":{"num_deleted":"0","num_feature":"2500","num_nodes":"13","size_leaf_vector":"1"}},{"base_weights":[1.2600078E-3,1.1768304E-2,-1.5643741E-1,-3.4695396E-3,1.5735325E-1,-1.4351676E-2,1.5666799E-1,-3.6678743E-2,2.4916132E-1,-6.056764E-2,4.3415642E-1,4.2492917E-1,-1.19003616E-1,-2.4057234E-2,1.2792891E-1,2.2452922E-1,-7.848456E-2,2.1047148E-1,-1.1690646E-1],"categories":[],"categories_nodes":[],"categories_segments":[],"categories_sizes":[],"default_left":[0,0,0,0,0,0,0,0,0,0,0,0,0,0,0,0,0,0,0],"id":54,"left_children":[1,3,-1,5,-1,7,-1,9,11,13,15,17,-1,-1,-1,-1,-1,-1,-1],"loss_changes":[5.603999E-1,7.8231025E-1,0E0,5.681553E-1,0E0,5.797843E-1,0E0,1.0418191E0,1.043141E0,8.637383E-1,1.1758797E0,1.7469963E0,0E0,0E0,0E0,0E0,0E0,0E0,0E0],"parents":[2147483647,0,0,1,1,3,3,5,5,7,7,8,8,9,9,10,10,11,11],"right_children":[2,4,-1,6,-1,8,-1,10,12,14,16,18,-1,-1,-1,-1,-1,-1,-1],"split_conditions":[5E-1,5E-1,-1.5643741E-1,5E-1,1.5735325E-1,3.3333334E-1,1.5666799E-1,2.5E-1,2.5E-1,5E-1,1.4285715E-1,5E-1,-1.19003616E-1,-2.4057234E-2,1.2792891E-1,2.2452922E-1,-7.848456E-2,2.1047148E-1,-1.1690646E-1],"split_indices":[1432,1085,0,248,0,1053,0,1938,1938,2421,76,1034,0,0,0,0,0,0,0],"split_type":[0,0,0,0,0,0,0,0,0,0,0,0,0,0,0,0,0,0,0],"sum_hessian":[9.990585E1,9.8895226E1,1.0106224E0,9.7005615E1,1.8896102E0,9.599126E1,1.0143605E0,8.928692E1,6.7043395E0,8.580478E1,3.4821403E0,5.538946E0,1.1653935E0,8.328425E1,2.5205305E0,2.346542E0,1.1355983E0,4.238374E0,1.3005718E0],"tree_param":{"num_deleted":"0","num_feature":"2500","num_nodes":"19","size_leaf_vector":"1"}},{"base_weights":[6.294771E-3,1.6582938E-2,-1.5261796E-1,-3.268949E-3,3.0197373E-1,1.5120354E-2,-4.3573385E-1,1.2978354E-1,-3.9740097E-2,-2.582109E-3,1.7176495E-1,-1.6804548E-1,-3.040638E-2,-1.8488891E-2,1.5882218E-1,4.103563E-3,-9.8758385E-2],"categories":[],"categories_nodes":[],"categories_segments":[],"categories_sizes":[],"default_left":[0,0,0,0,0,0,0,0,0,0,0,0,0,0,0,0,0],"id":55,"left_children":[1,3,-1,5,7,9,11,-1,-1,13,-1,-1,-1,15,-1,-1,-1],"loss_changes":[5.42097E-1,5.659142E-1,0E0,7.5587124E-1,4.2596507E-1,9.0281636E-1,1.0449618E-1,0E0,0E0,7.6736754E-1,0E0,0E0,0E0,8.829472E-1,0E0,0E0,0E0],"parents":[2147483647,0,0,1,1,3,3,4,4,5,5,6,6,9,9,13,13],"right_children":[2,4,-1,6,8,10,12,-1,-1,14,-1,-1,-1,16,-1,-1,-1],"split_conditions":[3.3333334E-1,3.3333334E-1,-1.5261796E-1,3.3333334E-1,3.3333334E-1,5E-1,1.4285715E-1,1.2978354E-1,-3.9740097E-2,3.3333334E-1,1.7176495E-1,-1.6804548E-1,-3.040638E-2,2.5E-1,1.5882218E-1,4.103563E-3,-9.8758385E-2],"split_indices":[1134,1030,0,649,1007,524,76,0,0,924,0,0,0,2212,0,0,0],"split_type":[0,0,0,0,0,0,0,0,0,0,0,0,0,0,0,0,0],"sum_hessian":[9.971684E1,9.871274E1,1.0041035E0,9.321707E1,5.4956675E0,9.034064E1,2.876434E0,4.228385E0,1.2672825E0,8.85247E1,1.815939E0,1.6042992E0,1.272135E0,8.689183E1,1.6328688E0,7.960616E1,7.285668E0],"tree_param":{"num_deleted":"0","num_feature":"2500","num_nodes":"17","size_leaf_vector":"1"}},{"base_weights":[4.7461605E-3,-5.2015404E-3,1.4665768E-1,6.8054297E-3,-1.642311E-1,1.857838E-2,-1.4774068E-1,5.5880472E-2,-1.3788736E-1,7.559702E-2,-2.091986E-1,8.842067E-3,-2.1917824E-1,2.8474439E-2,-1.7087087E-1,5.363426E-2,-2.5053853E-1],"categories":[],"categories_nodes":[],"categories_segments":[],"categories_sizes":[],"default_left":[0,0,0,0,0,0,0,0,0,0,0,0,0,0,0,0,0],"id":56,"left_children":[1,3,-1,5,-1,7,-1,9,11,13,-1,15,-1,-1,-1,-1,-1],"loss_changes":[4.840295E-1,6.479945E-1,0E0,5.840157E-1,0E0,5.7099414E-1,0E0,1.2206283E0,1.647339E0,1.0204527E0,0E0,2.4601083E0,0E0,0E0,0E0,0E0,0E0],"parents":[2147483647,0,0,1,1,3,3,5,5,7,7,8,8,9,9,11,11],"right_children":[2,4,-1,6,-1,8,-1,10,12,14,-1,16,-1,-1,-1,-1,-1],"split_conditions":[5E-1,5E-1,1.4665768E-1,5E-1,-1.642311E-1,2.5E-1,-1.4774068E-1,1E0,2.5E-1,5E-1,-2.091986E-1,2.5E-1,-2.1917824E-1,2.8474439E-2,-1.7087087E-1,5.363426E-2,-2.5053853E-1],"split_indices":[1499,1703,0,353,0,2458,0,2002,2212,920,0,2345,0,0,0,0,0],"split_type":[0,0,0,0,0,0,0,0,0,0,0,0,0,0,0,0,0],"sum_hessian":[9.8980446E1,9.7956856E1,1.023593E0,9.68008E1,1.1560555E0,9.551142E1,1.2893819E0,7.764369E1,1.7867725E1,7.6539764E1,1.1039265E0,1.5111765E1,2.7559602E0,7.51427E1,1.3970625E0,1.3234984E1,1.8767809E0],"tree_param":{"num_deleted":"0","num_feature":"2500","num_nodes":"17","size_leaf_vector":"1"}},{"base_weights":[-5.29514E-3,-1.8704085E-2,3.7352255E-1,-7.3923147E-3,-1.570161E-1,1.6076484E-1,2.1758638E-3,7.702073E-3,-3.579705E-1,2.4567777E-2,-1.3654856E-1,-1.4323221E-1,-2.0928534E-3,7.388985E-3,1.7704384E-1,-2.294112E-3,1.8077148E-1],"categories":[],"categories_nodes":[],"categories_segments":[],"categories_sizes":[],"default_left":[0,0,0,0,0,0,0,0,0,0,0,0,0,0,0,0,0],"id":57,"left_children":[1,3,5,7,-1,-1,-1,9,11,13,-1,-1,-1,15,-1,-1,-1],"loss_changes":[5.082204E-1,5.456415E-1,1.9955963E-1,5.0632113E-1,0E0,0E0,0E0,7.3102885E-1,1.6226894E-1,8.692767E-1,0E0,0E0,0E0,7.9464036E-1,0E0,0E0,0E0],"parents":[2147483647,0,0,1,1,2,2,3,3,7,7,8,8,9,9,13,13],"right_children":[2,4,6,8,-1,-1,-1,10,12,14,-1,-1,-1,16,-1,-1,-1],"split_conditions":[8.3333336E-2,5E-1,2E-1,2E-1,-1.570161E-1,1.6076484E-1,2.1758638E-3,3.3333334E-1,2.5E-1,5E-1,-1.3654856E-1,-1.4323221E-1,-2.0928534E-3,4E-1,1.7704384E-1,-2.294112E-3,1.8077148E-1],"split_indices":[71,1703,1854,2284,0,0,0,2387,104,2305,0,0,0,1854,0,0,0],"split_type":[0,0,0,0,0,0,0,0,0,0,0,0,0,0,0,0,0],"sum_hessian":[9.7676926E1,9.52558E1,2.4211278E0,9.415998E1,1.0958185E0,1.356663E0,1.0644648E0,9.121086E1,2.9491167E0,8.891782E1,2.29304E0,1.9314462E0,1.0176705E0,8.727986E1,1.6379609E0,8.609208E1,1.1877818E0],"tree_param":{"num_deleted":"0","num_feature":"2500","num_nodes":"17","size_leaf_vector":"1"}},{"base_weights":[-2.389024E-3,8.708571E-3,-1.3761832E-1,-6.700586E-3,1.5039739E-1,-1.8966017E-2,1.6332397E-1,-3.0641671E-2,1.4316513E-1,-4.350778E-2,1.5122566E-1,-5.9353397E-3,-1.3996443E-1],"categories":[],"categories_nodes":[],"categories_segments":[],"categories_sizes":[],"default_left":[0,0,0,0,0,0,0,0,0,0,0,0,0],"id":58,"left_children":[1,3,-1,5,-1,7,-1,9,-1,11,-1,-1,-1],"loss_changes":[5.033704E-1,7.415495E-1,0E0,6.5441966E-1,0E0,5.6021506E-1,0E0,6.6142535E-1,0E0,9.1094464E-1,0E0,0E0,0E0],"parents":[2147483647,0,0,1,1,3,3,5,5,7,7,9,9],"right_children":[2,4,-1,6,-1,8,-1,10,-1,12,-1,-1,-1],"split_conditions":[1E0,8.3333336E-2,-1.3761832E-1,5E-1,1.5039739E-1,2.5E-1,1.6332397E-1,5E-1,1.4316513E-1,3.3333334E-1,1.5122566E-1,-5.9353397E-3,-1.3996443E-1],"split_indices":[359,71,0,744,0,1614,0,2133,0,2265,0,0,0],"split_type":[0,0,0,0,0,0,0,0,0,0,0,0,0],"sum_hessian":[9.7607765E1,9.624805E1,1.3597176E0,9.428519E1,1.962867E0,9.317705E1,1.1081358E0,9.1951584E1,1.2254622E0,9.068816E1,1.2634189E0,8.686378E1,3.824392E0],"tree_param":{"num_deleted":"0","num_feature":"2500","num_nodes":"13","size_leaf_vector":"1"}},{"base_weights":[2.0125844E-3,-8.919311E-3,1.3002056E-1,1.763883E-3,-1.490461E-1,-1.4479556E-2,1.453218E-1,-1.5154204E-3,-1.7982143E-1,-1.3505575E-2,1.6195032E-1,2.1741362E-4,-1.8297552E-1],"categories":[],"categories_nodes":[],"categories_segments":[],"categories_sizes":[],"default_left":[0,0,0,0,0,0,0,0,0,0,0,0,0],"id":59,"left_children":[1,3,-1,5,-1,7,-1,9,-1,11,-1,-1,-1],"loss_changes":[4.680865E-1,5.063916E-1,0E0,7.5886875E-1,0E0,7.1001095E-1,0E0,6.091295E-1,0E0,7.786035E-1,0E0,0E0,0E0],"parents":[2147483647,0,0,1,1,3,3,5,5,7,7,9,9],"right_children":[2,4,-1,6,-1,8,-1,10,-1,12,-1,-1,-1],"split_conditions":[5E-1,4E-1,1.3002056E-1,3.3333334E-1,-1.490461E-1,5E-1,1.453218E-1,3.3333334E-1,-1.7982143E-1,5E-1,1.6195032E-1,2.1741362E-4,-1.8297552E-1],"split_indices":[1785,1989,0,1261,0,98,0,2114,0,1776,0,0,0],"split_type":[0,0,0,0,0,0,0,0,0,0,0,0,0],"sum_hessian":[9.743733E1,9.598431E1,1.4530272E0,9.490268E1,1.0816264E0,9.275112E1,2.1515622E0,9.172083E1,1.0302868E0,9.068729E1,1.0335469E0,8.954944E1,1.1378465E0],"tree_param":{"num_deleted":"0","num_feature":"2500","num_nodes":"13","size_leaf_vector":"1"}},{"base_weights":[9.0665335E-4,-9.137812E-3,1.3701387E-1,-1.9325806E-2,1.2779282E-1,-3.0192843E-2,1.3249992E-1,-4.1783724E-2,1.26893E-1,-5.5569634E-2,1.10440075E-1,-2.0290278E-2,1.5055342E-1],"categories":[],"categories_nodes":[],"categories_segments":[],"categories_sizes":[],"default_left":[0,0,0,0,0,0,0,0,0,0,0,0,0],"id":60,"left_children":[1,3,-1,5,-1,7,-1,9,-1,11,-1,-1,-1],"loss_changes":[4.52608E-1,4.374103E-1,0E0,4.9204066E-1,0E0,5.129579E-1,0E0,5.451661E-1,0E0,6.43891E-1,0E0,0E0,0E0],"parents":[2147483647,0,0,1,1,3,3,5,5,7,7,9,9],"right_children":[2,4,-1,6,-1,8,-1,10,-1,12,-1,-1,-1],"split_conditions":[2.5E-1,5E-1,1.3701387E-1,2.5E-1,1.2779282E-1,1E0,1.3249992E-1,2E-1,1.26893E-1,1E0,1.10440075E-1,-2.0290278E-2,1.5055342E-1],"split_indices":[1505,1572,0,1206,0,195,0,518,0,851,0,0,0],"split_type":[0,0,0,0,0,0,0,0,0,0,0,0,0],"sum_hessian":[9.6947205E1,9.58157E1,1.1315094E0,9.455727E1,1.2584311E0,9.329257E1,1.2646947E0,9.185106E1,1.4415113E0,8.969884E1,2.1522207E0,8.8658585E1,1.0402538E0],"tree_param":{"num_deleted":"0","num_feature":"2500","num_nodes":"13","size_leaf_vector":"1"}},{"base_weights":[8.9469E-3,1.9060636E-2,-1.2835838E-1,3.1835325E-2,-1.2894274E-1,1.7789098E-2,1.5108117E-1,-1.7867981E-3,3.6935067E-1,2.6884763E-2,-4.237097E-1,4.4170195E-1,2.0055037E-2,2.535115E-3,1.8751009E-1,-1.8165095E-1,3.141981E-2,1.556603E-1,4.4704754E-2],"categories":[],"categories_nodes":[],"categories_segments":[],"categories_sizes":[],"default_left":[0,0,0,0,0,0,0,0,0,0,0,0,0,0,0,0,0,0,0],"id":61,"left_children":[1,3,-1,5,-1,7,-1,9,11,13,15,17,-1,-1,-1,-1,-1,-1,-1],"loss_changes":[4.424553E-1,5.701294E-1,0E0,6.224611E-1,0E0,6.446055E-1,0E0,1.0956336E0,7.859284E-2,9.304814E-1,6.17025E-1,8.69143E-3,0E0,0E0,0E0,0E0,0E0,0E0,0E0],"parents":[2147483647,0,0,1,1,3,3,5,5,7,7,8,8,9,9,10,10,11,11],"right_children":[2,4,-1,6,-1,8,-1,10,12,14,16,18,-1,-1,-1,-1,-1,-1,-1],"split_conditions":[1E0,5E-1,-1.2835838E-1,3.3333334E-1,-1.2894274E-1,2.5E-1,1.5108117E-1,5E-1,2.5E-1,3.3333334E-1,2.5E-1,3.3333334E-1,2.0055037E-2,2.535115E-3,1.8751009E-1,-1.8165095E-1,3.141981E-2,1.556603E-1,4.4704754E-2],"split_indices":[1451,1502,0,924,0,1880,0,304,104,540,1484,1276,0,0,0,0,0,0,0],"split_type":[0,0,0,0,0,0,0,0,0,0,0,0,0,0,0,0,0,0,0],"sum_hessian":[9.730769E1,9.604037E1,1.2673283E0,9.4286095E1,1.7542754E0,9.2567726E1,1.7183634E0,8.8627625E1,3.940107E0,8.386491E1,4.7627172E0,2.808265E0,1.131842E0,8.234135E1,1.5235547E0,3.4351423E0,1.3275752E0,1.6108034E0,1.1974616E0],"tree_param":{"num_deleted":"0","num_feature":"2500","num_nodes":"19","size_leaf_vector":"1"}},{"base_weights":[8.407002E-3,-1.377735E-3,1.3125977E-1,-1.2386411E-2,1.5619147E-1,5.24259E-4,-1.4035669E-1,1.1954701E-2,-1.5885381E-1,6.010763E-4,1.5764388E-1,4.3997825E-3,-1.069647E-1],"categories":[],"categories_nodes":[],"categories_segments":[],"categories_sizes":[],"default_left":[0,0,0,0,0,0,0,0,0,0,0,0,0],"id":62,"left_children":[1,3,-1,5,-1,7,-1,9,-1,11,-1,-1,-1],"loss_changes":[4.119555E-1,5.626154E-1,0E0,5.63342E-1,0E0,5.765456E-1,0E0,5.4254097E-1,0E0,4.678499E-1,0E0,0E0,0E0],"parents":[2147483647,0,0,1,1,3,3,5,5,7,7,9,9],"right_children":[2,4,-1,6,-1,8,-1,10,-1,12,-1,-1,-1],"split_conditions":[5E-1,5E-1,1.3125977E-1,5E-1,1.5619147E-1,5E-1,-1.4035669E-1,5E-1,-1.5885381E-1,5E-1,1.5764388E-1,4.3997825E-3,-1.069647E-1],"split_indices":[1282,744,0,1373,0,2470,0,1785,0,200,0,0,0],"split_type":[0,0,0,0,0,0,0,0,0,0,0,0,0],"sum_hessian":[9.696723E1,9.578008E1,1.187147E0,9.4758026E1,1.0220584E0,9.311738E1,1.6406441E0,9.2108475E1,1.0089073E0,9.10956E1,1.0128798E0,8.8566696E1,2.5288937E0],"tree_param":{"num_deleted":"0","num_feature":"2500","num_nodes":"13","size_leaf_vector":"1"}},{"base_weights":[6.6183005E-3,1.5802473E-2,-1.3089053E-1,4.0812436E-3,1.2780185E-1,1.4920474E-2,-1.3201624E-1,4.12357E-4,1.8027109E-1,1.5396943E-2,-1.5914068E-1,1.3183642E-4,1.7540902E-1],"categories":[],"categories_nodes":[],"categories_segments":[],"categories_sizes":[],"default_left":[0,0,0,0,0,0,0,0,0,0,0,0,0],"id":63,"left_children":[1,3,-1,5,-1,7,-1,9,-1,11,-1,-1,-1],"loss_changes":[4.025747E-1,4.610836E-1,0E0,4.619523E-1,0E0,7.9301304E-1,0E0,7.4046457E-1,0E0,7.7037144E-1,0E0,0E0,0E0],"parents":[2147483647,0,0,1,1,3,3,5,5,7,7,9,9],"right_children":[2,4,-1,6,-1,8,-1,10,-1,12,-1,-1,-1],"split_conditions":[5E-1,5E-1,-1.3089053E-1,5E-1,1.2780185E-1,5E-1,-1.3201624E-1,3.3333334E-1,1.8027109E-1,1E0,-1.5914068E-1,1.3183642E-4,1.7540902E-1],"split_indices":[1432,1085,0,1725,0,2174,0,1209,0,2448,0,0,0],"split_type":[0,0,0,0,0,0,0,0,0,0,0,0,0],"sum_hessian":[9.626996E1,9.525903E1,1.0109223E0,9.35946E1,1.6644385E0,9.23082E1,1.2863983E0,9.105452E1,1.2536778E0,8.949932E1,1.5551989E0,8.818321E1,1.3161085E0],"tree_param":{"num_deleted":"0","num_feature":"2500","num_nodes":"13","size_leaf_vector":"1"}},{"base_weights":[5.690895E-3,-8.025895E-3,3.1856924E-1,-2.0817949E-2,1.4911088E-1,1.4061269E-1,-2.9227145E-3,-8.323641E-3,-1.538895E-1,-2.1764072E-2,1.6523685E-1,-9.497244E-3,-1.568886E-1,1.954399E-3,-1.7300484E-1],"categories":[],"categories_nodes":[],"categories_segments":[],"categories_sizes":[],"default_left":[0,0,0,0,0,0,0,0,0,0,0,0,0,0,0],"id":64,"left_children":[1,3,5,7,-1,-1,-1,9,-1,11,-1,13,-1,-1,-1],"loss_changes":[4.190127E-1,6.172584E-1,2.0667112E-1,5.6499004E-1,0E0,0E0,0E0,6.980924E-1,0E0,5.4910207E-1,0E0,8.1190014E-1,0E0,0E0,0E0],"parents":[2147483647,0,0,1,1,2,2,3,3,7,7,9,9,11,11],"right_children":[2,4,6,8,-1,-1,-1,10,-1,12,-1,14,-1,-1,-1],"split_conditions":[5E-1,5E-1,2.5E-1,5E-1,1.4911088E-1,1.4061269E-1,-2.9227145E-3,5E-1,-1.538895E-1,5E-1,1.6523685E-1,5E-1,-1.568886E-1,1.954399E-3,-1.7300484E-1],"split_indices":[2421,886,104,1725,0,0,0,2174,0,353,0,1620,0,0,0],"split_type":[0,0,0,0,0,0,0,0,0,0,0,0,0,0,0],"sum_hessian":[9.603781E1,9.293771E1,3.1001012E0,9.157706E1,1.3606533E0,1.8338374E0,1.2662638E0,9.030146E1,1.2756014E0,8.9120186E1,1.181272E0,8.798569E1,1.1345022E0,8.653138E1,1.4543064E0],"tree_param":{"num_deleted":"0","num_feature":"2500","num_nodes":"15","size_leaf_vector":"1"}},{"base_weights":[4.0699714E-3,-5.7347575E-3,1.381195E-1,9.296705E-3,-1.3065067E-1,2.2915786E-2,-1.1297325E-1,1.0214887E-2,1.7282933E-1,2.716234E-2,-1.4139256E-1,1.2836129E-2,-1.3682461E-1],"categories":[],"categories_nodes":[],"categories_segments":[],"categories_sizes":[],"default_left":[0,0,0,0,0,0,0,0,0,0,0,0,0],"id":65,"left_children":[1,3,-1,5,-1,7,-1,9,-1,11,-1,-1,-1],"loss_changes":[4.3478295E-1,6.2125367E-1,0E0,4.9890482E-1,0E0,6.338569E-1,0E0,7.4749243E-1,0E0,6.8331295E-1,0E0,0E0,0E0],"parents":[2147483647,0,0,1,1,3,3,5,5,7,7,9,9],"right_children":[2,4,-1,6,-1,8,-1,10,-1,12,-1,-1,-1],"split_conditions":[1E0,3.3333334E-1,1.381195E-1,3.3333334E-1,-1.3065067E-1,5E-1,-1.1297325E-1,5E-1,1.7282933E-1,3.3333334E-1,-1.4139256E-1,1.2836129E-2,-1.3682461E-1],"split_indices":[1301,2387,0,1033,0,1390,0,119,0,1769,0,0,0],"split_type":[0,0,0,0,0,0,0,0,0,0,0,0,0],"sum_hessian":[9.5585976E1,9.454207E1,1.0439101E0,9.2292435E1,2.249634E0,9.005465E1,2.2377844E0,8.902903E1,1.0256157E0,8.691365E1,2.115378E0,8.50744E1,1.839255E0],"tree_param":{"num_deleted":"0","num_feature":"2500","num_nodes":"13","size_leaf_vector":"1"}},{"base_weights":[1.2115831E-3,-8.506298E-3,1.2956563E-1,-2.135769E-2,9.781893E-2,-8.193868E-3,-1.388197E-1,9.605865E-3,-1.220298E-1,-2.8044112E-2,2.1927364E-1,-2.4176852E-4,-1.6447113E-1,1.0301253E-1,-1.1130889E-1],"categories":[],"categories_nodes":[],"categories_segments":[],"categories_sizes":[],"default_left":[0,0,0,0,0,0,0,0,0,0,0,0,0,0,0],"id":66,"left_children":[1,3,-1,5,-1,7,-1,9,-1,11,13,-1,-1,-1,-1],"loss_changes":[4.057513E-1,4.1513795E-1,0E0,5.3282547E-1,0E0,6.473864E-1,0E0,6.992482E-1,0E0,1.0667949E0,1.1148844E0,0E0,0E0,0E0,0E0],"parents":[2147483647,0,0,1,1,3,3,5,5,7,7,9,9,10,10],"right_children":[2,4,-1,6,-1,8,-1,10,-1,12,14,-1,-1,-1,-1],"split_conditions":[1E0,3.3333334E-1,1.2956563E-1,5E-1,9.781893E-2,5E-1,-1.388197E-1,3.3333334E-1,-1.220298E-1,5E-1,2.5E-1,-2.4176852E-4,-1.6447113E-1,1.0301253E-1,-1.1130889E-1],"split_indices":[259,1685,0,920,0,2458,0,1276,0,1691,715,0,0,0,0],"split_type":[0,0,0,0,0,0,0,0,0,0,0,0,0,0,0],"sum_hessian":[9.5070435E1,9.393119E1,1.1392485E0,9.135812E1,2.573061E0,8.9701385E1,1.6567436E0,8.6800865E1,2.9005187E0,7.4321266E1,1.2479601E1,7.157502E1,2.7462444E0,1.0657372E1,1.8222284E0],"tree_param":{"num_deleted":"0","num_feature":"2500","num_nodes":"15","size_leaf_vector":"1"}},{"base_weights":[-5.1681726E-4,1.4458171E-2,-2.1237491E-1,2.4365861E-2,-1.21701755E-1,1.1847311E-2,1.3083674E-1,7.4953027E-4,1.4159599E-1,1.5466554E-2,-1.082158E-1,-1.7739626E-3,1.3255125E-1],"categories":[],"categories_nodes":[],"categories_segments":[],"categories_sizes":[],"default_left":[0,0,0,0,0,0,0,0,0,0,0,0,0],"id":67,"left_children":[1,3,-1,5,-1,7,-1,9,-1,11,-1,-1,-1],"loss_changes":[1.0227313E0,4.0356585E-1,0E0,4.7597277E-1,0E0,4.6748406E-1,0E0,4.8680177E-1,0E0,8.0369806E-1,0E0,0E0,0E0],"parents":[2147483647,0,0,1,1,3,3,5,5,7,7,9,9],"right_children":[2,4,-1,6,-1,8,-1,10,-1,12,-1,-1,-1],"split_conditions":[1E0,1E0,-2.1237491E-1,8.3333336E-2,-1.21701755E-1,2.5E-1,1.3083674E-1,3.3333334E-1,1.4159599E-1,3.3333334E-1,-1.082158E-1,-1.7739626E-3,1.3255125E-1],"split_indices":[1304,359,0,71,0,1614,0,1830,0,596,0,0,0],"split_type":[0,0,0,0,0,0,0,0,0,0,0,0,0],"sum_hessian":[9.4578926E1,9.357754E1,1.0013877E0,9.2341896E1,1.2356395E0,9.06157E1,1.7261977E0,8.945971E1,1.1559877E0,8.687966E1,2.5800498E0,8.3670265E1,3.209395E0],"tree_param":{"num_deleted":"0","num_feature":"2500","num_nodes":"13","size_leaf_vector":"1"}},{"base_weights":[-3.2976025E-4,1.2360943E-2,-1.7370164E-1,2.2994267E-2,-1.1558476E-1,9.752465E-3,1.4329258E-1,-1.4647276E-3,1.4300823E-1,1.6704502E-2,-3.193328E-1,-4.455849E-3,9.959242E-2,-1.249321E-1,5.029632E-3],"categories":[],"categories_nodes":[],"categories_segments":[],"categories_sizes":[],"default_left":[0,0,0,0,0,0,0,0,0,0,0,0,0,0,0],"id":68,"left_children":[1,3,-1,5,-1,7,-1,9,-1,11,13,-1,-1,-1,-1],"loss_changes":[7.074644E-1,4.075558E-1,0E0,5.539156E-1,0E0,4.7825718E-1,0E0,5.2531797E-1,0E0,8.6170816E-1,1.6748619E-1,0E0,0E0,0E0,0E0],"parents":[2147483647,0,0,1,1,3,3,5,5,7,7,9,9,10,10],"right_children":[2,4,-1,6,-1,8,-1,10,-1,12,14,-1,-1,-1,-1],"split_conditions":[1E0,5E-1,-1.7370164E-1,3.3333334E-1,-1.1558476E-1,4E-1,1.4329258E-1,3.3333334E-1,1.4300823E-1,3.3333334E-1,2.5E-1,-4.455849E-3,9.959242E-2,-1.249321E-1,5.029632E-3],"split_indices":[1304,1079,0,2387,0,1854,0,2265,0,1007,2345,0,0,0,0],"split_type":[0,0,0,0,0,0,0,0,0,0,0,0,0,0,0],"sum_hessian":[9.4360344E1,9.329301E1,1.0673319E0,9.178088E1,1.5121255E0,9.017593E1,1.6049608E0,8.903395E1,1.1419716E0,8.511619E1,3.9177637E0,7.823778E1,6.878411E0,2.8540971E0,1.0636665E0],"tree_param":{"num_deleted":"0","num_feature":"2500","num_nodes":"15","size_leaf_vector":"1"}},{"base_weights":[-1.1481227E-4,1.0605945E-2,-1.428847E-1,4.630604E-4,1.24213345E-1,1.0550484E-2,-1.2229579E-1,2.045611E-2,-1.20979E-1,5.4396535E-3,1.5981561E-1,8.140004E-3,-6.429327E-2],"categories":[],"categories_nodes":[],"categories_segments":[],"categories_sizes":[],"default_left":[0,0,0,0,0,0,0,0,0,0,0,0,0],"id":69,"left_children":[1,3,-1,5,-1,7,-1,9,-1,11,-1,-1,-1],"loss_changes":[4.9036112E-1,3.8426596E-1,0E0,3.8572472E-1,0E0,3.828634E-1,0E0,6.90992E-1,0E0,4.284098E-1,0E0,0E0,0E0],"parents":[2147483647,0,0,1,1,3,3,5,5,7,7,9,9],"right_children":[2,4,-1,6,-1,8,-1,10,-1,12,-1,-1,-1],"split_conditions":[1E0,5E-1,-1.428847E-1,5E-1,1.24213345E-1,1E0,-1.2229579E-1,5E-1,-1.20979E-1,2.5E-1,1.5981561E-1,8.140004E-3,-6.429327E-2],"split_indices":[1304,11,0,353,0,509,0,524,0,715,0,0,0],"split_type":[0,0,0,0,0,0,0,0,0,0,0,0,0],"sum_hessian":[9.4067856E1,9.295278E1,1.1150753E0,9.164975E1,1.303027E0,9.038973E1,1.2600209E0,8.920496E1,1.1847676E0,8.764632E1,1.5586438E0,8.056909E1,7.0772243E0],"tree_param":{"num_deleted":"0","num_feature":"2500","num_nodes":"13","size_leaf_vector":"1"}},{"base_weights":[-1.437561E-3,-1.3952956E-2,1.2274306E-1,-2.446114E-2,1.2804896E-1,-1.1322134E-2,-1.193945E-1,-3.8843166E-2,2.6705614E-1,-6.288574E-2,1.9269255E-1,4.9140906E-1,-1.685721E-1,-2.5672076E-2,1.0298911E-1,1.6993353E-1,2.6037663E-2],"categories":[],"categories_nodes":[],"categories_segments":[],"categories_sizes":[],"default_left":[0,0,0,0,0,0,0,0,0,0,0,0,0,0,0,0,0],"id":70,"left_children":[1,3,-1,5,-1,7,-1,9,11,13,-1,15,-1,-1,-1,-1,-1],"loss_changes":[4.923079E-1,4.4055715E-1,0E0,4.4525725E-1,0E0,6.965135E-1,0E0,1.3894223E0,1.798274E0,7.710117E-1,0E0,1.6259348E-1,0E0,0E0,0E0,0E0,0E0],"parents":[2147483647,0,0,1,1,3,3,5,5,7,7,8,8,9,9,11,11],"right_children":[2,4,-1,6,-1,8,-1,10,12,14,-1,16,-1,-1,-1,-1,-1],"split_conditions":[5E-1,1E0,1.2274306E-1,3.3333334E-1,1.2804896E-1,2.5E-1,-1.193945E-1,5E-1,5E-1,2.5E-1,1.9269255E-1,3.3333334E-1,-1.685721E-1,-2.5672076E-2,1.0298911E-1,1.6993353E-1,2.6037663E-2],"split_indices":[1284,195,0,1033,0,1390,0,828,1691,1117,0,1007,0,0,0,0,0],"split_type":[0,0,0,0,0,0,0,0,0,0,0,0,0,0,0,0,0],"sum_hessian":[9.369517E1,9.186106E1,